tree
version=v3
num_class=1
num_tree_per_iteration=1
label_index=0
max_feature_idx=136
objective=regression_l1
feature_names=host_id host_is_superhost flat_path_to_front_door elevator 24-hour_check-in beds bedrooms dishwasher shampoo latitude iron family/kid_friendly patio_or_balcony paid_parking_on_premises safety_card cleaning_fee hair_dryer hot_water self_check-in other pets_allowed step-free_access internet refrigerator breakfast bathrooms is_location_exact garden_or_backyard gym buzzer/wireless_intercom longitude carbon_monoxide_detector coffee_maker free_parking_on_premises cable_tv dryer hangers high_chair indoor_fireplace laptop_friendly_workspace host_houses extra_people free_street_parking microwave smoking_allowed host_since pack_’n_play/travel_crib luggage_dropoff_allowed host_greets_you dishes_and_silverware accommodates children’s_books_and_toys bed_linens private_entrance paid_parking_off_premises stove single_level_home ethernet_connection washer lockbox well-lit_path_to_entrance minimum_nights guests_included smoke_detector bathtub hot_tub long_term_stays_allowed extra_pillows_and_blankets first_aid_kit crib wide_hallway_clearance cooking_basics perc_free private_living_room tv lock_on_bedroom_door fire_extinguisher air_conditioning security_deposit wide_doorway room_type_Entire_home/apt room_type_Private_room room_type_Shared_room neighbourhood_cleansed_Barking_and_Dagenham neighbourhood_cleansed_Barnet neighbourhood_cleansed_Bexley neighbourhood_cleansed_Brent neighbourhood_cleansed_Bromley neighbourhood_cleansed_Camden neighbourhood_cleansed_City_of_London neighbourhood_cleansed_Croydon neighbourhood_cleansed_Ealing neighbourhood_cleansed_Enfield neighbourhood_cleansed_Greenwich neighbourhood_cleansed_Hackney neighbourhood_cleansed_Hammersmith_and_Fulham neighbourhood_cleansed_Haringey neighbourhood_cleansed_Harrow neighbourhood_cleansed_Havering neighbourhood_cleansed_Hillingdon neighbourhood_cleansed_Hounslow neighbourhood_cleansed_Islington neighbourhood_cleansed_Kensington_and_Chelsea neighbourhood_cleansed_Kingston_upon_Thames neighbourhood_cleansed_Lambeth neighbourhood_cleansed_Lewisham neighbourhood_cleansed_Merton neighbourhood_cleansed_Newham neighbourhood_cleansed_Redbridge neighbourhood_cleansed_Richmond_upon_Thames neighbourhood_cleansed_Southwark neighbourhood_cleansed_Sutton neighbourhood_cleansed_Tower_Hamlets neighbourhood_cleansed_Waltham_Forest neighbourhood_cleansed_Wandsworth neighbourhood_cleansed_Westminster review_sentiment_neg review_sentiment_neu review_sentiment_pos cancellation_policy_flexible cancellation_policy_moderate cancellation_policy_strict property_type_apartment property_type_bed_and_breakfast property_type_condominium property_type_else property_type_house property_type_loft property_type_serviced_apartment property_type_townhouse bathrooms_nan cleaning_fee_nan bedrooms_nan host_since_nan security_deposit_nan beds_nan host_is_superhost_nan
feature_infos=[4775:224182400] [0:1] [0:1] [0:1] [0:1] [0:7] [0:7] [0:1] [0:1] [51.294792175292969:51.67919921875] [0:1] [0:1] [0:1] [0:1] [0:1] [0:614] [0:1] [0:1] [0:1] [0:1] [0:1] [0:1] [0:1] [0:1] [0:1] [0:4] [0:1] [0:1] [0:1] [0:1] [-0.49582266807556152:0.28539484739303589] [0:1] [0:1] [0:1] [0:1] [0:1] [0:1] [0:1] [0:1] [0:1] [1:792] [0:235] [0:1] [0:1] [0:1] [1:120] [0:1] [0:1] [0:1] [0:1] [1:20] [0:1] [0:1] [0:1] [0:1] [0:1] [0:1] [0:1] [0:1] [0:1] [0:1] [1:8] [1:7] [0:1] [0:1] [0:1] [0:1] [0:1] [0:1] [0:1] [0:1] [0:1] [0:1] [0:1] [0:1] [0:1] [0:1] [0:1] [0:4098] [0:1] [0:1] [0:1] [0:1] [0:1] [0:1] [0:1] [0:1] [0:1] [0:1] [0:1] [0:1] [0:1] [0:1] [0:1] [0:1] [0:1] [0:1] [0:1] [0:1] [0:1] [0:1] [0:1] [0:1] [0:1] [0:1] [0:1] [0:1] [0:1] [0:1] [0:1] [0:1] [0:1] [0:1] [0:1] [0:1] [0:1] none [0:1] [0:1] [0:1] [0:1] [0:1] [0:1] [0:1] [0:1] [0:1] [0:1] [0:1] [0:1] [0:1] none [0:1] none none [0:1] [0:1] none
tree_sizes=2759 2906 2916 2912 2929 2938 2941 2949 2936 2943 2946 2972 2953 2954 2951 2963 2961 2971 2966 2969 2978 2965 2972 2963 2997 2970 2954 2990 2948 2990 2955 2981 2972 2968 2992 2960 2985 2977 2979 2982 3003 2969 2998 2992 2966 2823 2955 2968 3008 2980 2943 2965 2981 2979 2972 2991 2984 2827 2999 2949 2826 2905 2901 2914 2935 2909 2922 2955 2954 2967 2954 2954 2951 2973 2940 2964 2962 2966 2959 2961 2980 2956 2987 2972 2982 2935 2966 2989 2975 2974 2841 2913 2905 2958 2952 2946 2935 2940 2940 2934 2843 2927 2927 2907 2853 2941 2934 2915 2938 2931 2929 2933 2908 2940 2936 2934 2937 2921 2933 2946 2939 2948 2928 2940 2952 2935 2946 2974 2959 2942 2950 2936 2928 2814 2929 2807 2946 2936 2879 2922 2931 2935 2933 2944 2955 2947 2934 2960 2929 2948 2805 2814 2904 2946 2919 2928 2933 2930 2928 2916 2907 2936 2915 2909 2923 2898 2938 2922 2909 2804 2941 2819 2929 2921 2916 2935 2970 2996 2939 2944 2919 2946 2926 2929 2946 2925 2955 2918 2985 2973 2930 2957 2936 2929 2965 2963 2962 2965 2931 2939 2952 2935 2935 2960 2814 2924 2960 2903 2972 2958 2946 2935 2933 2943 2919 2982 2916 2951 2813 2933 2932 2933 2901 2950 2966 2949 2948 2935 2956 2969 2939 2916 2959 2929 2934 2933 2944 2927 2926 2931 2966 2959 3014 2825 2937 2927 2910 2980 2974 2963 2924 2952 2949 2933 2933 2932 2900 2925 2948 2957 2975 2950 2949 2926 2941 2940 2986 2926 2973 2939 2955 2945 2941 2983 2943 2955 2957 3003 2931 2988 2860 2889 2977 2949 2918 2935 2907 2959 2936 2955 2932 2946 2969 2937 2964 2960 2951 2981 2926 2950 2829 2907 2975 2941 2962 2965 2955 2911 2958 2937 2923 2932 2948 2846 2951 2944 2920 2923 2958 2912 2974 2941 2936 2985 2951 2958 2904 2958 2923 2938 2958 2854 2959 2991 2908 3000 2946 2904 2973 2976 2901 2912 2919 2954 2954 2940 2987 2928 2926 2982 2923 2939 2933 2975 2982 2943 3001 2910 2843 2914 2911 2910 2975 2975 2942 2975 2936 2936 3018 2938 3013 2932 2937 2919 2928 2972 2949 2983 2961 2880 2988 2950 2953 2940 2944 2955 2907 2931 2939 2955 2962 2927 2900 2943 2955 2970 2953 2941 2962 2932 2984 2931 2970 2939 2926 2849 2946 2972 2924 2952 2920 2956 2948 2916 2931 2953 2960 2976 2939 2948 2910 2918 2933 2932 2962 2931 2913 2961 2943 2875 2930 2948 2891 2950 2943 2935 2911 2972 2888 2924 2955 2919 2987 2876 2922 2949 2927 2951 2890 2922 2932 2966 2986 2869 2908 2988 2982 2892 2920 2987 2924 2982 2995 2922 2918 2968 2900 2958 2936 2878 2903 2979 2906 2915 2893 2956 2879 2958 2934 2919 2902 2877 2908 2918 2952 2937 2923 2949 2941 2984 2966 2971 2945 2909 2964 2945 2919 2901 2974 2921 2964 2935 2903 2995 2978 2943 2958 2932 2961 2930 2963 2942 2952 2943 2950 2971 2996 2975 2978 2927 2892 2999 2970 2951 2970 2909 2879 2908 2907 2939 2982 2896 2988 2912 2885 2973 2922 2887 2980 2958 2938 2912 2962 2968 2896 2927 2902 2942 2991 2949 2914 2920 2992 3005 2918 2947 2981 2919 2958 2905 2973 2983 2992 2961 2931 2953 2897 2969 2989 2968 2895 2902 2983 2970 2943 2983 2972 2979 2981 2942 2903 2975 2915 2986 2866 2978 2924 2990 2981 2984 2961 2987 2876 2989 2997 2911 2977 2969 2881 2925 2924 2992 2949 2999 2984 2983 2996 2887 2948 2914 2930 2918 2976 2907 2910 2921 2984 2902 2939 2920 2969 2903 2947 2978 2904 2933 2933 2901 3000 2955 2920 2920 2952 2967 2953 2926 2886 2985 2979 2860 2994 2961 2895 2987 2878 2900 2924 2931 2872 2989 2904 2946 2991 2988 2888 2880 2987 2883 2984 2892 2960 2903 2975 2897 2989 2983 2988 2975 2912 2876 3000 2870 2917 2900 2913 2861 2897 2965 2912 2910 2894 2973 2878 2917 2979 2853 2945 2959 2880 2904 2977 2986 2904 2902 2980 2899 2923 2934 2959 2914 2906 2887 2967 2953 2947 2991 2948 2862 2924 2918 2976 2990 2866 2873 2984 2937 2910 3001 2978 2953 2903 2983 2906 2884 2880 2913 2885 2940 2940 2914 2975 2965 2867 2960 2934 2959 2997 2837 2884 2900 2997 2903 2908 2884 2980 2924 2882 2903 2961 2907 2897 2972 2914 2964 2872 2984 2984 2903 2870 2987 2876 2921 2908 2890 2969 2900 2987 3002 2861 2956 2948 2974 2977 2978 2945 2892 2863 2898 2992 2942 2912 2914 2980 2990 2893 2989 2965 2971 2853 2883 2923 2960 2876 2986 2885 2999 2975 2967 2889 2983 2923 2991 3012 2969 2977 2963 2912 2882 2997 2868 2899 3004 2927 2989 2886 2905 2966 2920 2992 2972 2913 2969 2919 2861 2923 2985 2972 2891 2920 2950 2895 2927 2910 2989 2985 2904 2945 2972 2907 2901 2868 2901 2910 2994 2969 2987 2916 2977 2997 2901 2974 2896 2924 2984 2887 2867 2991 2946 3000 2915 2895 2930 2974 2985 2958 2922 2899 2998 2869 2976 2971 2895 2977 2909 2997 2867 2997 2889 2953 2966 2955 2883 2974 2856 2872 2855 2866 2862 2969 2905 2889 2901 2917 2868 2943 2971 2974 2990 2861 2872 2889 2989 2867 2901 3020 2968 2839 2985 3005 2961 2878 2986 2977 2867 2932 3001 2991 3000 2959 2997 2966 2996 2960 2869 2908 2892 2991 2985 2908 2923 2945 2977 2857 2865 2901 2974 2958 2908 2994 2912 2923 2874 2983 2896 2983 2994 2888 2874 2916 2844 2908 2980 2942 2995 2872 2921 2856 2973 2898 2908 2917 2848 2893 2967 2904 2953 2997 2984 2996 2866 2888 2904 2965 2975 2978 2889 2963 2888 2965 2903 2959 2999 2862 2874 2994 3001 3003 2896 2975 2977 2872 2904 2976 2872 2968 2893 2950 2983 2919 2962

Tree=0
num_leaves=31
num_cat=0
split_feature=80 50 9 9 50 25 30 30 30 15 77 9 9 6 115 15 125 30 6 110 9 15 15 30 62 72 9 15 15 50
split_gain=19486.1 1450.33 491.938 453.8 378.035 246.422 183.384 207.862 165.775 135.01 128.285 102.183 104.195 91.3859 79.0016 75.151 66.7018 62.486 56.6622 55.7731 54.5985 54.2115 48.9976 46.6289 46.2393 41.4979 40.6269 38.2214 36.5533 35.4371
threshold=1.0000000180025095e-35 3.5000000000000004 51.548025131225593 51.470411300659187 3.5000000000000004 1.0000000180025095e-35 -0.065963141620159135 -0.23285676538944242 -0.065032765269279466 28.500000000000004 1.0000000180025095e-35 51.450223922729499 51.549203872680671 1.0000000180025095e-35 1.0000000180025095e-35 39.500000000000007 1.0000000180025095e-35 -0.14738768339157102 1.5000000000000002 1.0000000180025095e-35 51.491342544555671 45.500000000000007 19.500000000000004 -0.19203549623489377 1.5000000000000002 0.075342465192079558 51.529294967651374 38.500000000000007 24.500000000000004 4.5000000000000009
decision_type=2 2 2 2 2 2 2 2 2 2 2 2 2 2 2 2 2 2 2 2 2 2 2 2 2 2 2 2 2 2
left_child=4 2 3 17 10 8 7 -5 11 -6 14 -3 -13 23 22 18 -12 -2 -10 26 -21 -11 -1 -9 -24 -8 -15 -4 -16 -14
right_child=1 5 27 6 9 -7 25 13 15 21 16 12 29 19 28 -17 -18 -19 -20 20 -22 -23 24 -25 -26 -27 -28 -29 -30 -31
leaf_value=13.31179453646979 13.661880217031211 13.747266968387656 13.567954790539119 13.576493465674766 13.397181287826236 14.59259580681646 13.61918684135299 13.661880217031211 13.653341541895575 13.661880217031211 13.405719962961877 14.063197948406502 13.747266968387656 14.003427222456983 13.448413338640098 13.832653719744101 14.233971451119402 13.550877440267845 13.789960344065872 13.61918684135299 13.883885770557978 14.080275298677789 13.32033321160544 13.789960344065872 13.448413338640098 13.747266968387656 13.832653719744101 13.661880217031211 13.533800089996545 13.990619209753518
leaf_weight=5875 463 453 944 340 554 7385 452 196 383 412 670 5287 518 2607 437 637 95 609 509 95 175 132 8538 914 510 491 678 303 551 239
leaf_count=5875 463 453 944 340 554 7385 452 196 383 412 670 5287 518 2607 437 637 95 609 509 95 175 132 8538 914 510 491 678 303 551 239
internal_value=13.6619 13.6672 13.6643 13.6651 13.6553 13.6687 13.6661 13.6667 13.6677 13.6602 13.655 13.6683 13.6686 13.6672 13.6548 13.6651 13.6584 13.66 13.6635 13.6679 13.6641 13.6632 13.6547 13.665 13.6551 13.6626 13.6682 13.6593 13.6572 13.6656
internal_weight=0 23678 8267 7020 17774 15411 5948 5005 8026 1098 16676 6497 6044 4665 15911 1529 765 1072 892 3555 270 544 14923 1110 9048 943 3285 1247 988 757
internal_count=41452 23678 8267 7020 17774 15411 5948 5005 8026 1098 16676 6497 6044 4665 15911 1529 765 1072 892 3555 270 544 14923 1110 9048 943 3285 1247 988 757
shrinkage=0.170774


Tree=1
num_leaves=31
num_cat=0
split_feature=80 50 9 9 50 50 9 30 30 30 77 9 15 115 6 30 15 62 125 9 30 15 6 40 30 102 9 9 6 102
split_gain=18179.9 1336.39 409.132 403.249 366.611 254.492 178.956 155.592 152.699 182.432 143.91 131.583 120.787 96.6596 93.7752 92.9012 60.9457 57.5492 57.0593 54.605 53.6076 52.0036 51.1744 45.0659 43.9 66.236 43.2983 43.1666 41.1903 36.7783
threshold=1.0000000180025095e-35 3.5000000000000004 51.545686721801765 51.481496810913093 3.5000000000000004 4.5000000000000009 51.556859970092781 -0.07256618887186049 -0.23535767942667005 -0.062567055225372301 1.0000000180025095e-35 51.450223922729499 28.500000000000004 1.0000000180025095e-35 1.0000000180025095e-35 -0.12118316069245337 19.500000000000004 1.5000000000000002 1.0000000180025095e-35 51.485704421997077 -0.2200084179639816 45.500000000000007 1.0000000180025095e-35 4.5000000000000009 -0.17541103065013883 1.0000000180025095e-35 51.563795089721687 51.416082382202156 1.0000000180025095e-35 1.0000000180025095e-35
decision_type=2 2 2 2 2 2 2 2 2 2 2 2 2 2 2 2 2 2 2 2 2 2 2 2 2 2 2 2 2 2
left_child=4 2 3 15 10 6 7 11 -5 14 13 -3 -6 16 24 27 -1 29 -12 -9 -13 -14 -4 -11 25 -10 -24 -2 -21 -18
right_child=1 5 22 8 12 -7 -8 19 9 23 18 20 21 -15 -16 -17 17 -19 -20 28 -22 -23 26 -25 -26 -27 -28 -29 -30 -31
leaf_value=-0.32167333879786808 -0.1486552014983728 0.078456911901919016 -0.1329638191179891 -0.078456911901919016 -0.24321642689594908 0.73955962745440496 0.037576731489866469 0.00041293111527323465 -0.022711211340029191 -0.004129311152732581 -0.23537073570575701 0.19490348640897784 0 -0.15897847938020437 0.27253453608035039 -0.11025260777795989 -0.31382764760767606 -0.19614227975479742 0.52566130974285785 -0.040880180412052602 0.4100405974663453 0.38443886831940322 0.0045422422680058121 0.16104313495657063 0.1507198570747392 0.16517244610930315 -0.11107847000850644 0.046661216025878235 0.15897847938020437 -0.1486552014983728
leaf_weight=5875 86 429 271 292 554 7550 601 332 207 637 670 499 412 988 3267 640 8234 510 95 96 4749 132 622 110 691 176 488 780 1155 304
leaf_count=5875 86 429 271 292 554 7550 601 332 207 637 670 499 412 988 3267 640 8234 510 95 96 4749 132 622 110 691 176 488 780 1155 304
internal_value=0 0.00490955 0.00223074 0.00305351 -0.00614169 0.00634656 0.00530649 0.00566501 0.00411089 0.0044442 -0.00644604 0.00630344 -0.00151935 -0.00661427 0.00509291 -0.000723863 -0.0067799 -0.00635461 -0.00294719 0.00337544 0.00666292 0.00124487 -0.00187179 0.000674399 0.00297587 0.000733141 -0.00108627 0.00103948 0.00416562 -0.00651559
internal_weight=0 23678 8267 6886 17774 15411 7861 7260 5380 5088 16676 5677 1098 15911 4341 1506 14923 9048 765 1583 5248 544 1381 747 1074 383 1110 866 1251 8538
internal_count=41452 23678 8267 6886 17774 15411 7861 7260 5380 5088 16676 5677 1098 15911 4341 1506 14923 9048 765 1583 5248 544 1381 747 1074 383 1110 866 1251 8538
shrinkage=0.00825862


Tree=2
num_leaves=31
num_cat=0
split_feature=80 50 9 9 50 15 30 30 25 77 9 15 115 30 9 6 15 110 62 25 6 62 9 15 15 88 30 86 6 101
split_gain=17834.3 1305.89 382.978 413.809 361.882 282.847 165.485 174.666 146.969 137.275 132.404 119.452 102.904 102.39 90.4645 88.5189 61.7392 60.4974 56.7722 56.7718 55.296 50.6083 50.2657 49.8416 43.1629 39.9003 38.1327 37.7591 37.587 37.3162
threshold=1.0000000180025095e-35 3.5000000000000004 51.545145034790046 51.469526290893562 3.5000000000000004 39.500000000000007 -0.063475150614976869 -0.2200084179639816 1.0000000180025095e-35 1.0000000180025095e-35 51.556859970092781 28.500000000000004 1.0000000180025095e-35 -0.072053093463182435 51.469526290893562 1.0000000180025095e-35 19.500000000000004 1.0000000180025095e-35 1.5000000000000002 1.0000000180025095e-35 1.0000000180025095e-35 1.5000000000000002 51.491342544555671 45.500000000000007 39.500000000000007 1.0000000180025095e-35 -0.10047877207398413 1.0000000180025095e-35 1.5000000000000002 1.0000000180025095e-35
decision_type=2 2 2 2 2 2 2 2 2 2 2 2 2 2 2 2 2 2 2 2 2 2 2 2 2 2 2 2 2 2
left_child=4 2 3 24 9 8 7 20 10 12 13 -6 16 14 -3 -9 -1 -17 -18 26 -5 -11 -19 -13 -2 29 -7 -16 -15 -4
right_child=1 5 25 6 11 19 -8 15 -10 21 -12 23 -14 28 27 17 18 22 -20 -21 -22 -23 -24 -25 -26 -27 -28 -29 -30 -31
leaf_value=-0.42947527703256583 -0.11180111089834971 0.11632770661600936 -0.13592844640625995 -0.23242328011829286 -0.3247252094636473 0.55912162104861207 0.012099938552974839 0.14319711452980965 0.81330738057873009 -0.3142502027067553 -0.0084438420117882371 0 -0.21225671586333467 0.0020021481058879074 0.40817706384819252 0.36386865576571675 -0.41900027027567383 -0.093810794584574281 -0.26187516892229618 1.2775736080309992 0.052621675217793228 0.66070887494301156 0.26753341356937066 0.51327533108770018 0.064329889141355234 0.064097756027628933 0.32542160880482529 0.081449706278657608 0.21092195045940942 0.0093433578274770106
leaf_weight=5875 808 504 955 91 554 2817 853 1090 2207 684 452 412 988 454 1932 3149 8538 102 510 5178 355 81 177 132 237 204 1259 100 508 246
leaf_count=5875 808 504 955 91 554 2817 853 1090 2207 684 452 412 988 454 1932 3149 8538 102 510 5178 355 81 177 132 237 204 1259 100 508 246
internal_value=0 0.00677243 0.00305084 0.00418124 -0.00861063 0.00876882 0.0053893 0.00620082 0.00684108 -0.0090356 0.00550067 -0.00215643 -0.0092665 0.00626454 0.00748757 0.00688487 -0.00950668 0.00780097 -0.00890511 0.0100514 -0.000728669 -0.00423302 0.00262086 0.00170686 -0.00254347 -0.00247003 0.00902677 0.00857933 0.00304041 -0.00327615
internal_weight=0 23678 8267 6862 17774 15411 5817 4964 6157 16676 3950 1098 15911 3498 2536 4518 14923 3428 9048 9254 446 765 279 544 1045 1405 4076 2032 962 1201
internal_count=41452 23678 8267 6862 17774 15411 5817 4964 6157 16676 3950 1098 15911 3498 2536 4518 14923 3428 9048 9254 446 765 279 544 1045 1405 4076 2032 962 1201
shrinkage=0.0116067


Tree=3
num_leaves=31
num_cat=0
split_feature=80 6 9 9 50 30 30 50 9 77 9 15 15 115 50 30 78 72 6 15 6 30 72 15 62 3 74 62 15 15
split_gain=16618.9 1226.56 477.432 453.436 336.874 232.384 227.74 158.113 135.786 127.615 121.163 115.538 98.8817 89.0667 86.8959 71.8245 67.9053 62.2099 60.3067 57.2259 57.1624 57.0309 53.4828 50.106 49.5518 48.6147 48.447 53.5684 47.7256 41.8558
threshold=1.0000000180025095e-35 1.5000000000000002 51.547456741333015 51.469526290893562 3.5000000000000004 -0.065963141620159135 -0.21677087992429731 4.5000000000000009 51.560319900512702 1.0000000180025095e-35 51.47374343872071 28.500000000000004 18.500000000000004 1.0000000180025095e-35 1.5000000000000002 -0.12512892484664914 227.50000000000003 0.02602739725261927 1.0000000180025095e-35 37.500000000000007 1.0000000180025095e-35 -0.063475150614976869 0.86164382100105297 34.500000000000007 1.5000000000000002 1.0000000180025095e-35 1.0000000180025095e-35 1.5000000000000002 45.500000000000007 44.500000000000007
decision_type=2 2 2 2 2 2 2 2 2 2 2 2 2 2 2 2 2 2 2 2 2 2 2 2 2 2 2 2 2 2
left_child=4 2 3 15 9 6 20 8 10 12 -3 -6 -1 26 -8 -2 17 -16 25 -4 -5 -12 23 -7 -11 -19 -14 29 -13 -28
right_child=1 7 19 5 11 22 14 -9 -10 24 21 28 13 -15 16 -17 -18 18 -20 -21 -22 -23 -24 -25 -26 -27 27 -29 -30 -31
leaf_value=-0.32587999867249501 0.0018533492723553273 0.13650679439719285 -0.085553650607211942 -0.17706291635892296 -0.24737966254340893 -0.044462931036789222 -0.095099039248165831 0.79642943988709503 0.063885286813751246 -0.23939967342910545 0.55143481564144425 0 -0.31919956457214049 -0.12679677994202773 0.11897269089206548 -0.12286670220064892 0.39180536580581615 0.072324832087866636 0.27719962186528002 0.043897502445223141 0.043853291979215961 0.21485239389525346 0.18396643879761634 0.088168466984875876 0.503336155492219 0.25841133724552684 -0.28196969846079584 -0.1529623952184071 0.39101946660087217 -0.072551701584482611
leaf_weight=6155 666 1016 1153 115 554 713 118 7071 417 684 3127 412 4615 669 1383 584 1637 594 2517 427 520 716 185 424 81 295 4012 313 132 147
leaf_count=6155 666 1016 1153 115 554 713 118 7071 417 684 3127 412 4615 669 1383 584 1637 594 2517 427 520 716 185 424 81 295 4012 313 132 147
internal_value=0 0.00520209 0.00299078 0.00375983 -0.00670594 0.00452947 0.00518983 0.00723143 0.0060121 -0.00703474 0.00644952 -0.0017123 -0.00721327 -0.00663047 0.00570623 -0.0014743 0.00585157 0.00529218 0.00596815 -0.00175546 -0.000131917 0.00720523 0.000943419 0.000188278 -0.00332149 0.00388422 -0.00687177 -0.00618139 0.00133453 -0.00646085
internal_weight=0 23678 11331 9751 17774 8501 7179 12347 5276 16676 4859 1098 15911 9756 6544 1250 6426 4789 3406 1580 635 3843 1322 1137 765 889 9087 4472 544 4159
internal_count=41452 23678 11331 9751 17774 8501 7179 12347 5276 16676 4859 1098 15911 9756 6544 1250 6426 4789 3406 1580 635 3843 1322 1137 765 889 9087 4472 544 4159
shrinkage=0.00930747


Tree=4
num_leaves=31
num_cat=0
split_feature=80 50 50 15 15 9 9 77 25 9 30 30 9 15 15 30 115 40 15 30 117 62 115 102 30 125 35 30 30 15
split_gain=15927.8 1136.86 340.123 323.171 298.786 200.091 239.361 156.831 153.996 115.626 114.646 118.088 105.181 104.231 94.5852 92.2619 90.6028 72.6006 71.5737 62.7844 61.4855 52.6531 51.6809 50.3219 49.9532 49.5112 43.699 39.2772 39.1748 35.9929
threshold=1.0000000180025095e-35 3.5000000000000004 3.5000000000000004 38.500000000000007 39.500000000000007 51.549203872680671 51.479295730590827 1.0000000180025095e-35 1.0000000180025095e-35 51.549203872680671 -0.2200084179639816 -0.066836822777986513 51.480049133300788 18.500000000000004 28.500000000000004 -0.07256618887186049 1.0000000180025095e-35 8.5000000000000018 89.500000000000014 -0.14738768339157102 1.0000000180025095e-35 1.5000000000000002 1.0000000180025095e-35 1.0000000180025095e-35 -0.10047877207398413 1.0000000180025095e-35 1.0000000180025095e-35 -0.12281896919012068 -0.21826124191284177 45.500000000000007
decision_type=2 2 2 2 2 2 2 2 2 2 2 2 2 2 2 2 2 2 2 2 2 2 2 2 2 2 2 2 2 2
left_child=2 3 7 5 8 6 19 13 9 12 -8 20 27 -1 -4 28 21 22 24 -2 -12 23 26 -15 -6 -9 -5 -3 -14 -16
right_child=1 4 14 17 18 -7 10 25 -10 -11 11 -13 15 16 29 -17 -18 -19 -20 -21 -22 -23 -24 -25 -26 -27 -28 -29 -30 -31
leaf_value=-0.27374487066617315 0.0015568456454120216 0.10509621114434724 -0.20780322205795668 0.045369394473926516 0.43857653990785583 -0.082678960926689679 -0.086309491846320696 -0.20109989231415154 0.51264591346299504 0.0026210013640200602 0.26577222847013188 -0.0023724317475581121 0.099875811983594132 -0.26813318975220185 0 0.072894550991250556 -0.10651150198696495 0.30185499520485548 1.1258260847782493 -0.10321016828313449 0.076483829384776672 -0.16964072619388013 0.24204671508279027 -0.11341049832591157 0.25086005752794843 0.48566722432390014 0.14548631769956188 -0.0039823347254855715 0.3038490301839703 0.3284631574464475
leaf_weight=6155 423 423 554 851 4322 896 312 670 2207 602 1068 620 227 8270 412 729 669 934 2808 611 1371 511 349 306 2124 95 832 427 1542 132
leaf_count=6155 423 423 554 851 4322 896 312 670 2207 602 1068 620 227 8270 412 729 669 934 2808 611 1371 511 349 306 2124 95 832 427 1542 132
internal_value=0 0.0044323 -0.00587588 0.00197013 0.0057531 0.000752974 0.0014741 -0.00616801 0.00434822 0.00337531 0.00253661 0.00302132 0.00397239 -0.00634301 -0.00143911 0.00482331 -0.00581393 0.00414549 0.00668782 -0.00198983 0.00383659 -0.00602912 0.00327253 -0.00618204 0.00621011 -0.00252815 0.00267485 0.00147171 0.00583864 0.000998484
internal_weight=0 23678 17774 8267 15411 5301 4405 16676 6157 3950 3371 3059 3348 15911 1098 2498 9756 2966 9254 1034 2439 9087 2032 8576 6446 765 1683 850 1769 544
internal_count=41452 23678 17774 8267 15411 5301 4405 16676 6157 3950 3371 3059 3348 15911 1098 2498 9756 2966 9254 1034 2439 9087 2032 8576 6446 765 1683 850 1769 544
shrinkage=0.00822993


Tree=5
num_leaves=31
num_cat=0
split_feature=80 6 9 9 50 30 30 40 77 15 30 115 15 9 15 102 50 62 6 9 102 72 30 110 6 9 9 30 30 9
split_gain=15159 1047.81 431.985 445.589 324.415 222.353 238.186 213.146 146.528 138.603 114.463 108.107 88.7542 83.6262 81.3326 71.7314 67.9802 64.8718 59.5263 59.0604 52.9518 52.9484 52.2208 52.2034 50.2613 45.5595 45.2597 45.2526 44.0451 43.3463
threshold=1.0000000180025095e-35 1.5000000000000002 51.545686721801765 51.480829238891609 3.5000000000000004 -0.07256618887186049 -0.2004662603139877 2.5000000000000004 1.0000000180025095e-35 35.500000000000007 -0.13475695252418515 1.0000000180025095e-35 28.500000000000004 51.530889511108406 18.500000000000004 1.0000000180025095e-35 1.5000000000000002 1.5000000000000002 1.0000000180025095e-35 51.561420440673835 1.0000000180025095e-35 0.9191780984401704 -0.080139670521020875 1.0000000180025095e-35 1.0000000180025095e-35 51.423885345458991 51.497385025024421 -0.063475150614976869 -0.16735740005969998 51.564914703369148
decision_type=2 2 2 2 2 2 2 2 2 2 2 2 2 2 2 2 2 2 2 2 2 2 2 2 2 2 2 2 2 2
left_child=4 2 3 10 8 6 15 9 11 19 -2 14 -6 16 -1 24 -8 20 -4 22 -16 -7 25 28 -5 -3 -25 -11 -18 -20
right_child=1 7 18 5 12 21 13 -9 -10 27 -12 -13 -14 -15 17 -17 23 -19 29 -21 -22 -23 -24 26 -26 -27 -28 -29 -30 -31
leaf_value=-0.28702972996753151 0.046842940746856368 0.060804585193874536 -0.13336248583202781 -0.14342281159205661 -0.21692939276652737 0.031436669195785708 -0.048123356865407169 0.80895051623252001 -0.16471394788190746 0.50325886977841572 -0.078221116579378608 -0.14510249878755788 0.080625604301646031 0.09946994603758047 -0.2799088938922934 0.20867074596519064 0.21349754284462019 -0.17709090050320575 0.011993692857287365 0.055852114132975264 -0.11839118898901253 0.23060147704895487 0.12789894994047382 0.0045127287092238269 0.034991822194836916 0.3535311900448449 0.30140361873870675 0.21493213161426963 0.33451675760642491 -0.086494859034773816
leaf_weight=5836 853 158 316 165 554 1400 90 5388 765 3179 957 988 544 761 8270 254 1461 511 839 380 306 176 883 181 655 1621 181 738 2488 554
leaf_count=5836 853 158 316 165 554 1400 90 5388 765 3179 957 988 544 761 8270 254 1461 511 839 380 306 176 883 181 655 1621 181 738 2488 554
internal_value=0 0.00462528 0.0026394 0.00338358 -0.00642522 0.00432034 0.00508736 0.00644775 -0.00673873 0.00540222 -0.000659529 -0.00692461 -0.00166375 0.00589355 -0.00711642 0.00121254 0.0063722 -0.00658138 -0.00155047 0.00395395 -0.0067679 0.00128538 0.00443005 0.0065346 -8.82297e-05 0.00532242 0.00324768 0.00652696 0.0068359 -0.000746596
internal_weight=0 23678 11331 9622 17774 7812 6236 12347 16676 6959 1810 15911 1098 5162 14923 1074 4401 9087 1709 3042 8576 1576 2662 4311 820 1779 362 3917 3949 1393
internal_count=41452 23678 11331 9622 17774 7812 6236 12347 16676 6959 1810 15911 1098 5162 14923 1074 4401 9087 1709 3042 8576 1576 2662 4311 820 1779 362 3917 3949 1393
shrinkage=0.00904354


Tree=6
num_leaves=31
num_cat=0
split_feature=80 50 9 9 25 50 30 15 15 115 40 30 30 50 30 72 9 9 15 125 15 6 102 9 9 9 9 15 78 3
split_gain=13820 995.719 299.313 318.819 296.658 270.851 176.407 142.161 130.347 114.272 112.556 103.868 127.199 87.5609 83.2561 80.6739 77.8801 81.0192 76.5982 66.3244 64.2924 63.7798 59.1524 54.5967 49.9798 48.3257 71.1248 48.2183 44.1676 42.5928
threshold=1.0000000180025095e-35 3.5000000000000004 51.548025131225593 51.474496841430671 1.0000000180025095e-35 3.5000000000000004 -0.07256618887186049 18.500000000000004 62.500000000000007 1.0000000180025095e-35 2.5000000000000004 -0.21677087992429731 -0.067681480199098573 1.5000000000000002 -0.064299300312995897 0.058904109522700317 51.564914703369148 51.484525680541999 28.500000000000004 1.0000000180025095e-35 27.500000000000004 1.0000000180025095e-35 1.0000000180025095e-35 51.530889511108406 51.519502639770515 51.491342544555671 51.529294967651374 39.500000000000007 252.50000000000003 1.0000000180025095e-35
decision_type=2 2 2 2 2 2 2 2 2 2 2 2 2 2 2 2 2 2 2 2 2 2 2 2 2 2 2 2 2 2
left_child=5 2 3 27 6 7 10 -1 11 13 16 -5 21 -9 28 -15 17 -3 -7 22 -8 -13 29 -12 -11 -23 -27 -2 -6 -17
right_child=1 4 -4 8 14 18 20 9 -10 24 23 12 -14 15 -16 19 -18 -19 -20 -21 -22 25 -24 -25 -26 26 -28 -29 -30 -31
leaf_value=-0.26990804055746331 -0.068804669754299289 0.080790053105367882 -0.068226884608982324 -0.04045021971571227 0.63102585818714052 -0.21098678661403908 -0.0039527392182535648 -0.33705220149210208 0.37599757460836059 -0.0022464186548110791 0.42429575543657638 0.06300493627961698 0.0087196482433255177 -0.26298227405639341 0.34086242640860565 -0.22594731033853929 -0.01258297916395015 0.2573605423354331 0.07841693075095435 0.0036694647121566144 0.1214200771359267 0.071528905047930441 0.025278990628513458 0.22692709460789012 -0.23371494189139988 0.27801032365917411 0.085619164739023146 0.046964034271751852 1.3345016535553211 -0.13335990104390391
leaf_weight=6365 923 914 1247 431 3587 554 558 3082 810 489 2361 991 889 2559 1209 2847 258 2029 544 236 1384 474 147 522 247 1636 563 303 2589 704
leaf_count=6365 923 914 1247 431 3587 554 558 3082 810 489 2361 991 889 2559 1209 2847 258 2029 544 236 1384 474 147 522 247 1636 563 303 2589 704
internal_value=0 0.0044929 0.00190058 0.00264309 0.00588352 -0.00630932 0.00465129 -0.0066026 0.00355073 -0.00593095 0.0054268 0.00299089 0.00340212 -0.00620118 0.0072227 -0.00559118 0.00423166 0.00465926 -0.00185512 -0.00475881 0.00222172 0.00416441 -0.00506251 0.00675377 -0.00241532 0.00490821 0.00548619 -0.00164633 0.00765765 -0.00530077
internal_weight=0 23678 8267 7020 15411 17774 8026 16676 5794 10311 6084 4984 4553 9575 7385 6493 3201 2943 1098 3934 1942 3664 3698 2883 736 2673 2199 1226 6176 3551
internal_count=41452 23678 8267 7020 15411 17774 8026 16676 5794 10311 6084 4984 4553 9575 7385 6493 3201 2943 1098 3934 1942 3664 3698 2883 736 2673 2199 1226 6176 3551
shrinkage=0.00925874


Tree=7
num_leaves=31
num_cat=0
split_feature=80 6 9 9 50 30 30 50 77 30 9 9 115 15 15 50 9 95 62 6 30 9 125 72 102 110 30 30 30 30
split_gain=15514.5 1091.39 445.776 470.747 314.38 208.936 248.225 194.148 154.037 130.159 124.961 121.501 111.459 90.1851 79.2166 78.4672 72.7778 61.2288 59.8473 55.9992 54.1186 49.9403 49.5112 48.7281 48.2787 48.2383 50.1966 47.6321 46.8239 46.4658
threshold=1.0000000180025095e-35 1.5000000000000002 51.546846389770515 51.480829238891609 3.5000000000000004 -0.072053093463182435 -0.21826124191284177 4.5000000000000009 1.0000000180025095e-35 -0.12281896919012068 51.560319900512702 51.47374343872071 1.0000000180025095e-35 41.500000000000007 18.500000000000004 1.5000000000000002 51.531847000122077 1.0000000180025095e-35 1.5000000000000002 1.0000000180025095e-35 -0.063475150614976869 51.52044868469239 1.0000000180025095e-35 0.91643837094306957 1.0000000180025095e-35 1.0000000180025095e-35 -0.16735740005969998 -0.11246081441640852 -0.062567055225372301 -0.11601213738322257
decision_type=2 2 2 2 2 2 2 2 2 2 2 2 2 2 2 2 2 2 2 2 2 2 2 2 2 2 2 2 2 2
left_child=4 2 3 9 8 6 21 10 12 -2 11 27 14 29 -1 -8 17 25 24 -4 -13 -5 -10 -7 -16 26 -17 -3 -21 -6
right_child=1 7 19 5 13 23 15 -9 22 -11 -12 20 -14 -15 18 16 -18 -19 -20 28 -22 -23 -24 -25 -26 -27 -28 -29 -30 -31
leaf_value=-0.17935398158018015 0.027527235146839326 0.11913271977671931 -0.085472029656821394 0.018256410160831103 -0.018764822209502704 0.020761777065056719 -0.055776614424064105 0.4430954436753215 -0.12900291552925411 -0.055949748831745368 0.017702080572238838 0.29126571552215402 -0.091797089072243612 0.17151137900473953 -0.1749158798267442 0.1321544695034767 0.062143281831637059 0.021524251351765222 -0.10879336011458492 0.0024628364763444005 0.10867098367143059 -0.1085768819207539 0.33359441834119447 0.13037238444754351 -0.072184766498669908 0.078424945592540096 0.20533421256228873 0.0055843195113898497 -0.069753025000985819 -0.14148331012904572
leaf_weight=5836 999 684 307 434 489 1376 109 7071 670 811 417 3127 988 149 8270 1713 806 225 511 1003 716 134 95 181 306 363 2564 332 306 460
leaf_count=5836 999 684 307 434 489 1376 109 7071 670 811 417 3127 988 149 8270 1713 806 225 511 1003 716 134 95 181 306 363 2564 332 306 460
internal_value=0 0.0029205 0.0016733 0.00212349 -0.00395886 0.00270967 0.00315775 0.00406506 -0.00414877 -0.000436596 0.00325719 0.00350809 -0.00426605 -0.00107449 -0.0043859 0.00350272 0.00359261 0.00384922 -0.00406096 -0.00103312 0.00396057 -0.000352715 -0.00170953 0.000882833 -0.0041712 0.0039867 0.004152 0.0017966 -0.000531423 -0.00170646
internal_weight=0 23678 11331 9715 17774 7905 6348 12347 16676 1810 5276 4859 15911 1098 14923 5780 5671 4865 9087 1616 3843 568 765 1557 8576 4640 4277 1016 1309 949
internal_count=41452 23678 11331 9715 17774 7905 6348 12347 16676 1810 5276 4859 15911 1098 14923 5780 5671 4865 9087 1616 3843 568 765 1557 8576 4640 4277 1016 1309 949
shrinkage=0.00556507


Tree=8
num_leaves=31
num_cat=0
split_feature=80 6 15 50 9 9 50 40 15 30 30 9 77 9 9 9 50 15 30 30 74 117 30 30 30 30 6 9 62 15
split_gain=13526.8 958.838 391.947 267.315 228.39 240.833 215.553 156.773 135.169 112.025 142.572 108.403 107.559 104.537 87.7913 101.828 78.1264 76.5982 75.537 75.406 63.8575 57.6832 53.1842 51.0653 50.8507 60.9858 46.8528 43.7925 43.7211 42.8022
threshold=1.0000000180025095e-35 1.5000000000000002 38.500000000000007 3.5000000000000004 51.546846389770515 51.480049133300788 5.5000000000000009 3.5000000000000004 18.500000000000004 -0.21826124191284177 -0.070948462933301912 51.531847000122077 1.0000000180025095e-35 51.483770370483406 51.560319900512702 51.479295730590827 1.5000000000000002 28.500000000000004 -0.070476278662681566 -0.12512892484664914 1.0000000180025095e-35 1.0000000180025095e-35 -0.0081345369108021242 -0.070476278662681566 -0.080973017960786806 -0.2004662603139877 1.0000000180025095e-35 51.488637924194343 1.5000000000000002 39.500000000000007
decision_type=2 2 2 2 2 2 2 2 2 2 2 2 2 2 2 2 2 2 2 2 2 2 2 2 2 2 2 2 2 2
left_child=3 2 4 8 5 19 7 14 -1 27 21 13 16 -4 15 -3 -10 -5 20 -2 -18 -11 -17 -8 25 -15 -23 -7 -14 -22
right_child=1 6 11 17 -6 9 23 -9 12 10 -12 -13 28 24 -16 22 18 -19 -20 -21 29 26 -24 -25 -26 -27 -28 -29 -30 -31
leaf_value=-0.28704320305219094 0.0039543156443411238 0.11884283201881092 0.058434197705211938 -0.22403512475765441 -0.079449055181583864 0.34697711016117161 0.95863621217871542 0.68564442248563318 -0.3431773043756921 0.29502753813286009 0.0024583423059910789 0.06358023184821604 -0.16588144401784832 0.11043524564185905 0.023360530778989017 0.35081296999154665 -0.23427415781740249 0.084441589190595426 -0.29184204273503289 -0.11456201478749896 -0.19053905314354164 0.037263595214711752 0.028040820060254056 0.41485346438860277 0.12941444274811204 0.34420276199132294 0.11952730432996202 -0.11146482270860635 1.0113605980248705 0.0094077225626639539
leaf_weight=6365 614 1216 591 554 1179 59 4416 2222 3143 1295 982 882 493 382 461 2785 2164 544 1983 649 2269 519 198 1049 527 2060 1258 334 62 197
leaf_count=6365 614 1216 591 554 1179 59 4416 2222 3143 1295 982 882 493 382 461 2785 2164 544 1983 649 2269 519 198 1049 527 2060 1258 334 62 197
internal_value=0 0.00482171 0.00269372 -0.00687132 0.00118081 0.00201896 0.00677459 0.00558182 -0.00719011 0.0031277 0.00362832 0.00504006 -0.00647353 0.00582777 0.00452603 0.00498674 -0.0067203 -0.00202975 -0.00609534 -0.00188489 -0.00538678 0.00470241 0.00599396 0.00827663 0.00660227 0.00721815 0.00351739 -0.00203637 -0.00213558 -0.00427231
internal_weight=0 23678 11331 17774 6889 5710 12347 6882 16676 4447 4054 4442 10311 3560 4660 4199 9756 1098 6613 1263 4630 3072 2983 5465 2969 2442 1777 393 555 2466
internal_count=41452 23678 11331 17774 6889 5710 12347 6882 16676 4447 4054 4442 10311 3560 4660 4199 9756 1098 6613 1263 4630 3072 2983 5465 2969 2442 1777 393 555 2466
shrinkage=0.0101303


Tree=9
num_leaves=31
num_cat=0
split_feature=80 50 15 9 15 9 115 72 78 78 62 125 9 9 15 30 30 30 6 50 50 30 102 30 9 9 115 7 50 74
split_gain=12778.8 876.819 294.397 268.274 262.669 254.059 174.85 173.939 140.067 131.892 124.554 125.368 91.7772 81.2078 80.8989 79.5919 79.5965 79.5309 69.508 68.8484 64.8623 63.1921 62.4613 62.1786 61.0369 87.4417 58.7426 55.8827 52.6738 48.3041
threshold=1.0000000180025095e-35 3.5000000000000004 40.500000000000007 51.548025131225593 38.500000000000007 51.474496841430671 1.0000000180025095e-35 0.036986300721764571 227.50000000000003 334.50000000000006 1.5000000000000002 1.0000000180025095e-35 51.545686721801765 51.485177993774421 18.500000000000004 -0.23285676538944242 -0.067681480199098573 -0.16650778800249097 1.5000000000000002 1.5000000000000002 5.5000000000000009 -0.13475695252418515 1.0000000180025095e-35 -0.07256618887186049 51.530889511108406 51.480829238891609 1.0000000180025095e-35 1.0000000180025095e-35 4.5000000000000009 1.0000000180025095e-35
decision_type=2 2 2 2 2 2 2 2 2 2 2 2 2 2 2 2 2 2 2 2 2 2 2 2 2 2 2 2 2 2
left_child=4 3 7 5 6 21 10 26 15 20 14 -12 13 -9 -1 -7 27 -8 -6 -16 24 -2 -21 -15 25 -4 28 29 -3 -17
right_child=1 2 9 -5 18 8 17 12 -10 -11 11 -13 -14 23 19 16 -18 -19 -20 22 -22 -23 -24 -25 -26 -27 -28 -29 -30 -31
leaf_value=-0.24693762783410655 0.0057633254169672165 0.024922035511770448 0.084997968810211752 -0.059736261934773202 -0.068896999872200229 -0.085549604549480809 -0.171603410990783 0.14291309009378722 0.24643202967783989 0.94126132739552615 -0.17701428446325457 0.2886069452324872 0.084529395277588917 0.46599638709807978 -0.28789685283277905 0.029370178260725206 0.003435202434691571 -0.0093599507475368854 0.32482862554306924 -0.19527611627220254 0.54327548802077297 -0.091739334478253901 -0.048300753213743858 0.16976207132841362 0.1040454439393179 0.31907669310551107 0.37684542685791922 0.25010902930521811 0.18813470536587074 0.098890625027649739
leaf_weight=5696 593 1470 504 1247 664 277 513 985 1356 2607 1222 145 668 2227 2949 744 801 547 145 5682 2351 633 211 739 727 2120 216 544 797 2072
leaf_count=5696 593 1470 504 1247 664 277 513 985 1356 2607 1222 145 668 2227 2949 744 801 547 145 5682 2351 633 211 739 727 2120 216 544 797 2072
internal_value=0 0.00388693 0.00509045 0.00164337 -0.00569307 0.0022917 -0.00591976 0.00381387 0.00303895 0.00618159 -0.00614356 -0.00367926 0.00479367 0.0052886 -0.00637527 0.00230506 0.00260011 -0.00256174 -0.00093941 -0.00586401 0.00545414 -0.00123978 -0.00533098 0.00599409 0.0046913 0.00529791 0.0019912 0.00317676 0.00158578 0.00269274
internal_weight=0 23678 15411 8267 17774 7020 16965 7102 5794 8309 15905 1367 4619 3951 14538 4438 4161 1060 809 8842 5702 1226 5893 2966 3351 2624 2483 3360 2267 2816
internal_count=41452 23678 15411 8267 17774 7020 16965 7102 5794 8309 15905 1367 4619 3951 14538 4438 4161 1060 809 8842 5702 1226 5893 2966 3351 2624 2483 3360 2267 2816
shrinkage=0.00853913


Tree=10
num_leaves=31
num_cat=0
split_feature=80 6 15 50 15 9 9 115 72 15 117 9 9 30 62 72 15 9 9 30 102 25 30 30 9 125 3 30 30 6
split_gain=12161.2 840.939 372.737 287.304 227.364 196.835 200.121 181.261 148.832 116.067 107.043 104.654 93.0938 90.764 89.1696 77.6752 73.6594 71.7301 87.4328 67.9573 66.5106 65.0877 64.5401 81.8425 62.4219 55.2645 53.8759 49.9103 68.7742 48.0909
threshold=1.0000000180025095e-35 1.5000000000000002 38.500000000000007 3.5000000000000004 89.500000000000014 51.549203872680671 51.477640151977546 1.0000000180025095e-35 0.23698630183935168 18.500000000000004 1.0000000180025095e-35 51.531396865844734 51.483770370483406 -0.062567055225372301 1.5000000000000002 0.031506848521530635 28.500000000000004 51.478487014770515 51.530889511108406 -0.12512892484664914 1.0000000180025095e-35 1.0000000180025095e-35 -0.21826124191284177 -0.07256618887186049 51.521139144897468 1.0000000180025095e-35 1.0000000180025095e-35 -0.20329238474369046 -0.080973017960786806 2.5000000000000004
decision_type=2 2 2 2 2 2 2 2 2 2 2 2 2 2 2 2 2 2 2 2 2 2 2 2 2 2 2 2 2 2
left_child=3 2 5 7 8 6 19 9 13 -1 15 12 -4 17 20 -8 -5 29 -19 -2 26 -10 -12 -24 -9 -16 -11 -14 -29 -3
right_child=1 4 11 16 -6 -7 10 24 21 14 22 -13 27 -15 25 -17 -18 18 -20 -21 -22 -23 23 -25 -26 -27 -28 28 -30 -31
leaf_value=-0.25757899254218553 0.0032798307342261279 0.046854136614037124 0.049317589856337364 -0.20302945786210597 1.1231095151335186 -0.076051564713145309 0.055640694117171562 -0.044257999697051145 0.31897668092033205 -0.25793571505501728 -0.10734225645278994 0.055274187306227733 0.081757860910910696 0.061342022434547692 -0.17922860824166356 0.254293466826498 0.059723383901174397 0.44331962071399494 0.1508645748494323 -0.10902927100140557 -0.094181051766533991 0.76809336894195179 0.0829553830834662 -0.016760794427274853 -0.21535306500845441 0.37541326441388939 -0.16954633174427136 0.30148810897021078 0.10331318604322906 0.37750241002886009
leaf_weight=6030 587 716 591 554 2767 1075 638 738 1889 7047 234 899 349 1076 472 1258 544 1968 1168 611 324 2409 1759 727 333 93 1639 2079 524 354
leaf_count=6030 587 716 591 554 2767 1075 638 738 1889 7047 234 899 349 1076 472 1258 544 1968 1168 611 324 2409 1759 727 333 93 1639 2079 524 354
internal_value=0 0.00425069 0.00233656 -0.0063984 0.00600732 0.000919478 0.0016267 -0.00671583 0.00529771 -0.00698159 0.00254635 0.00453428 0.00528659 0.00420372 -0.00631566 0.00432106 -0.00157737 0.00484885 0.00559107 -0.00191678 -0.0065508 0.00664217 0.00130927 0.00176911 -0.00284362 -0.00256599 -0.00671225 0.00599231 0.00645557 0.0026735
internal_weight=0 23678 11331 17774 12347 6889 5814 16676 9580 15605 4616 4442 3543 5282 9575 1896 1098 4206 3136 1198 9010 4298 2720 2486 1071 565 8686 2952 2603 1070
internal_count=41452 23678 11331 17774 12347 6889 5814 16676 9580 15605 4616 4442 3543 5282 9575 1896 1098 4206 3136 1198 9010 4298 2720 2486 1071 565 8686 2952 2603 1070
shrinkage=0.00973008


Tree=11
num_leaves=31
num_cat=0
split_feature=80 50 15 50 15 115 102 115 9 9 50 30 15 30 15 50 3 30 72 40 125 9 7 30 102 6 72 117 15 9
split_gain=12963.5 915.154 303.03 287.419 286.181 203.087 200.386 169.398 159.324 179.03 159.009 102.5 101.98 90.5444 88.8164 88.0992 83.3736 78.7928 78.208 75.2806 67.2023 66.5736 62.2059 58.3988 58.2296 54.3386 51.8743 50.2113 50.1518 48.5405
threshold=1.0000000180025095e-35 3.5000000000000004 89.500000000000014 3.5000000000000004 38.500000000000007 1.0000000180025095e-35 1.0000000180025095e-35 1.0000000180025095e-35 51.550439834594734 51.479295730590827 5.5000000000000009 -0.21677087992429731 18.500000000000004 -0.066836822777986513 28.500000000000004 1.5000000000000002 1.0000000180025095e-35 -0.050871795043349259 0.058904109522700317 8.5000000000000018 1.0000000180025095e-35 51.521139144897468 1.0000000180025095e-35 -0.14738768339157102 1.0000000180025095e-35 1.0000000180025095e-35 0.036986300721764571 1.0000000180025095e-35 24.500000000000004 51.43750190734864
decision_type=2 2 2 2 2 2 2 2 2 2 2 2 2 2 2 2 2 2 2 2 2 2 2 2 2 2 2 2 2 2
left_child=3 4 5 7 8 6 10 12 9 23 16 -11 -1 22 -5 -14 17 25 -17 -6 24 28 27 -2 -20 -3 -18 -13 -9 -27
right_child=1 2 -4 14 19 -7 -8 21 -10 11 -12 13 15 -15 -16 18 26 -19 20 -21 -22 -23 -24 -25 -26 29 -28 -29 -30 -31
leaf_value=-0.19605844350657123 0.0024148132350620523 -0.04462319025290739 0.84723433226415712 -0.15420024915962385 0.074451563178399655 0.45386269735335166 0.41270968706156586 -0.095845687348674352 -0.065254419463442903 -0.070433035111967926 0.2968118746532184 0.13610021213580029 -0.23314907520087738 -0.0038603931278590868 0.056677491419754249 -0.18712802171955442 0.072957944856107917 -0.002327440395453646 -0.13974321885891816 0.22417537893617343 0.0014356202523310702 -0.15873776966309761 0.21428278630699732 -0.076083050540360866 0.019978182562857667 -0.0015236258048958338 0.21017140378756038 0.038898576399170617 0.0038862605902649223 0.11292070991281808
leaf_weight=6030 423 158 2808 554 2032 1938 1136 304 836 344 2986 893 3082 632 544 2559 682 728 3551 934 236 333 334 611 147 312 1260 1228 434 3403
leaf_count=6030 423 158 2808 554 2032 1938 1136 304 836 344 2986 893 3082 632 544 2559 682 728 3551 934 236 333 334 611 147 312 1260 1228 434 3403
internal_value=0 0.0032149 0.00421827 -0.00465916 0.00134444 0.00375704 0.00337996 -0.00488654 0.000374643 0.00089738 0.00305016 0.00166339 -0.00507053 0.00206545 -0.00120582 -0.00462349 0.00244207 0.00193103 -0.00416298 0.00307773 -0.00354617 -0.00220567 0.00267097 -0.00164437 -0.00377625 0.00232638 0.00365282 0.00223079 -0.00103864 0.0024966
internal_weight=0 23678 15411 17774 8267 12603 10665 16676 5301 4465 9529 3431 15605 3087 1098 9575 6543 4601 6493 2966 3934 1071 2455 1034 3698 3873 1942 2121 738 3715
internal_count=41452 23678 15411 17774 8267 12603 10665 16676 5301 4465 9529 3431 15605 3087 1098 9575 6543 4601 6493 2966 3934 1071 2455 1034 3698 3873 1942 2121 738 3715
shrinkage=0.00696835


Tree=12
num_leaves=31
num_cat=0
split_feature=80 25 15 50 9 9 115 30 15 30 40 72 102 30 74 125 50 9 15 6 15 7 30 25 72 6 9 9 35 30
split_gain=11652.6 843.902 417.098 258.925 236.705 192.958 170.409 131.4 120.266 116.5 113.947 111.328 103.976 89.5577 83.7884 81.9081 79.5071 71.4426 71.0475 65.9728 63.3065 62.2421 62.121 61.2334 58.8231 55.8775 51.5028 51.3543 47.8808 46.8188
threshold=1.0000000180025095e-35 1.0000000180025095e-35 37.500000000000007 3.5000000000000004 51.549203872680671 51.486188888549812 1.0000000180025095e-35 -0.2200084179639816 99.500000000000014 -0.07256618887186049 4.5000000000000009 0.23698630183935168 1.0000000180025095e-35 -0.12281896919012068 1.0000000180025095e-35 1.0000000180025095e-35 2.5000000000000004 51.521463394165046 30.500000000000004 1.5000000000000002 65.500000000000014 1.0000000180025095e-35 -0.16650778800249097 1.5000000000000002 0.88904109597206127 1.0000000180025095e-35 51.416082382202156 51.498113632202156 1.0000000180025095e-35 -0.059361737221479409
decision_type=2 2 2 2 2 2 2 2 2 2 2 2 2 2 2 2 2 2 2 2 2 2 2 2 2 2 2 2 2 2
left_child=3 2 4 6 5 13 12 -7 11 16 28 23 14 26 -1 18 21 -12 -16 -5 -19 -9 -8 29 -11 -6 -2 -24 -4 -3
right_child=1 8 10 19 25 7 22 9 -10 24 17 -13 -14 -15 15 -17 -18 20 -20 -21 -22 -23 27 -25 -26 -27 -28 -29 -30 -31
leaf_value=-0.21540010636689602 -0.11262343289144408 0.25346082131998698 0.075179557016553683 -0.15277710419499449 -0.12321230730545096 -0.053810711521488051 -0.14961275066228202 0.056299897397210232 1.2170400211115893 0.013088072268397196 0.31817576395583569 0.61245057102436773 -0.077152591991105135 -0.067802148865471007 -0.19925043027454828 -0.06320796289334793 0.21843708959936831 0.065489393826293041 -0.087883847353790193 0.06956553313085749 0.43718553608674698 0.24283626977783146 -0.093845366738047539 0.67597248510477015 0.19816958830379799 -0.031523903959010814 0.053847844677280883 0.035352042000736092 0.14648518485310244 0.05841715615272175
leaf_weight=7725 125 2153 2029 660 230 461 527 1365 1852 1191 2015 2822 458 1013 6712 327 1886 598 383 438 293 216 226 521 191 1224 991 318 2013 489
leaf_count=7725 125 2153 2029 660 230 461 527 1365 1852 1191 2015 2822 458 1013 6712 327 1886 598 383 438 293 216 226 521 191 1224 991 318 2013 489
internal_value=0 0.00345529 0.00238305 -0.00519545 0.00122489 0.00180731 -0.00544553 0.00263079 0.00562261 0.00302244 0.00386542 0.00506617 -0.00565937 -0.000246531 -0.00577399 -0.00516128 0.00381267 0.00508498 -0.00534339 -0.00139729 0.003181 0.0024771 -0.00232972 0.00402593 0.00104003 -0.00175492 0.00133134 -0.000415617 0.00298861 0.00352701
internal_weight=0 23678 15841 17774 8893 7439 16676 5310 7837 4849 6948 5985 15605 2129 15147 7422 3467 2906 7095 1098 891 1581 1071 3163 1382 1454 1116 544 4042 2642
internal_count=41452 23678 15841 17774 8893 7439 16676 5310 7837 4849 6948 5985 15605 2129 15147 7422 3467 2906 7095 1098 891 1581 1071 3163 1382 1454 1116 544 4042 2642
shrinkage=0.00807484


Tree=13
num_leaves=31
num_cat=0
split_feature=80 6 9 9 15 40 62 30 30 25 115 125 30 115 102 9 102 78 30 102 15 50 6 30 110 6 9 9 6 9
split_gain=10880.3 799.514 314.847 311.167 257.136 237.923 171.507 156.523 186.551 153.89 130.509 112.502 99.5189 92.5731 102.271 84.4528 81.6693 73.479 71.4594 72.777 70.1382 68.7207 67.8211 64.8674 62.2372 62.1176 63.2574 72.458 56.9016 55.4497
threshold=1.0000000180025095e-35 1.5000000000000002 51.545686721801765 51.484525680541999 38.500000000000007 3.5000000000000004 1.5000000000000002 -0.21677087992429731 -0.07256618887186049 1.5000000000000002 1.0000000180025095e-35 1.0000000180025095e-35 -0.12586477398872373 1.0000000180025095e-35 1.0000000180025095e-35 51.524175643920906 1.0000000180025095e-35 399.50000000000006 -0.16735740005969998 1.0000000180025095e-35 18.500000000000004 1.5000000000000002 1.0000000180025095e-35 -0.16650778800249097 1.0000000180025095e-35 2.5000000000000004 51.556859970092781 51.43974685668946 1.5000000000000002 51.53277778625489
decision_type=2 2 2 2 2 2 2 2 2 2 2 2 2 2 2 2 2 2 2 2 2 2 2 2 2 2 2 2 2 2
left_child=4 2 3 12 6 9 10 -5 15 13 16 -8 -2 14 25 18 20 29 19 22 -1 -22 -9 -12 -20 26 27 -3 -6 -7
right_child=1 5 -4 7 28 17 11 8 -10 -11 23 -13 -14 -15 -16 -17 -18 -19 24 -21 21 -23 -24 -25 -26 -27 -28 -29 -30 -31
leaf_value=-0.24077231254151332 0.040382275212848227 -0.031109387526791085 -0.048498084469734908 -0.042158095819044498 -0.056995544032135796 0.57936166512993781 -0.15311114404494935 -0.035957411548901794 0.035835158544340051 0.95347957581674125 -0.16936769325614712 0.34751139398268344 -0.086284238529265991 0.54253970070800062 0.57025266419754417 0.080441915698041169 -0.08407052089131245 1.2435875049154488 0.30689819394186546 0.22872973883353614 -0.2796692518928322 -0.18009225513626914 0.09115642903875279 -0.034961744150290804 0.083193021520562613 0.30382948761483131 -0.022446660647991435 0.15800374776951789 0.32934763164683561 0.22580965258674127
leaf_weight=5589 1136 315 1709 538 664 2962 1314 219 1538 1038 471 170 916 649 441 1424 407 1400 2011 954 2860 5682 537 472 349 1330 503 3230 145 479
leaf_count=5589 1136 315 1709 538 664 2962 1314 219 1538 1038 471 170 916 649 441 1424 407 1400 2011 954 2860 5682 537 472 349 1330 503 3230 145 479
internal_value=0 0.0037159 0.00196262 0.00260474 -0.00574627 0.0053249 -0.00598635 0.00346053 0.00382408 0.00430593 -0.00627089 -0.00301804 -0.000552341 0.00378163 0.00341644 0.00461177 -0.00648463 0.00690482 0.00528209 0.00385926 -0.0066009 -0.00608001 0.00174102 -0.0029757 0.00631304 0.00306944 0.00250637 0.00293677 -0.000711795 0.00618654
internal_weight=0 23678 11331 9622 17774 12347 16965 7570 7032 7506 15481 1484 2052 6468 5819 5494 14538 4841 4070 1710 14131 8542 756 943 2360 5378 4048 3545 809 3441
internal_count=41452 23678 11331 9622 17774 12347 16965 7570 7032 7506 15481 1484 2052 6468 5819 5494 14538 4841 4070 1710 14131 8542 756 943 2360 5378 4048 3545 809 3441
shrinkage=0.00914035


Tree=14
num_leaves=31
num_cat=0
split_feature=80 50 15 15 9 9 62 30 30 115 72 125 6 6 30 30 15 50 40 30 30 15 9 9 50 9 30 30 72 9
split_gain=10285.7 758.513 403.205 270.728 250.209 369.482 167.02 148.412 138.971 132.434 124.612 107.515 103.705 101.642 90.6687 91.9844 89.6801 98.4747 77.2695 62.7796 61.9925 61.7208 61.5679 58.8207 52.4491 52.1796 51.3581 49.6716 47.5303 47.3321
threshold=1.0000000180025095e-35 4.5000000000000009 60.500000000000007 38.500000000000007 51.530889511108406 51.489845275878913 1.5000000000000002 -0.10461402684450148 -0.12281896919012068 1.0000000180025095e-35 0.88904109597206127 1.0000000180025095e-35 1.0000000180025095e-35 1.0000000180025095e-35 -0.061412157490849488 -0.21677087992429731 18.500000000000004 1.5000000000000002 152.50000000000003 -0.16650778800249097 -0.070476278662681566 103.00000000000001 51.562646865844734 51.416082382202156 2.5000000000000004 51.545686721801765 -0.2044044807553291 -0.20713100582361219 0.12191780656576158 51.498529434204109
decision_type=2 2 2 2 2 2 2 2 2 2 2 2 2 2 2 2 2 2 2 2 2 2 2 2 2 2 2 2 2 2
left_child=3 2 4 6 5 8 9 21 23 16 12 -8 -7 -6 15 -14 -1 -18 26 -11 -19 25 27 -2 -5 -3 -4 -15 -24 -21
right_child=1 7 18 24 13 10 11 -9 -10 19 -12 -13 14 22 -16 -17 17 20 -20 29 -22 -23 28 -25 -26 -27 -28 -29 -30 -31
leaf_value=-0.16720013822894966 -0.093313956294633391 0.4416065304863187 0.066282707289741227 -0.054951238052632689 -0.084806342708831986 0.014725679596322969 -0.11029197272367233 0.18778709245122802 -0.050688875995319765 -0.12200220383301669 0.28474979793339777 0.25032611065234739 0.011442314757067426 -0.084289341539295418 0.025182547279516316 0.16349038851753483 -0.2014206766688246 -0.11145491917607607 0.38352614494044696 -0.10009631181284555 -0.16100802793266325 1.0743590453782612 -0.069929006821471837 0.05417599064942015 0.069488753613117793 0.17835093903819504 0.20162927186443491 0.032195603750078378 0.0090163277950081246 0.024716628703267525
leaf_weight=5696 143 3446 352 557 483 982 1314 2456 1377 471 955 170 384 177 679 3061 2949 3933 431 192 1960 1192 482 1793 252 456 2429 2002 398 280
leaf_count=5696 143 3446 352 557 483 982 1314 2456 1377 471 955 170 384 177 679 3061 2949 3933 431 192 1960 1192 482 1793 252 456 2429 2002 398 280
internal_value=0 0.00269055 0.00184182 -0.00428537 0.00129535 0.00188831 -0.00447216 0.00450357 2.71956e-05 -0.00468507 0.00290561 -0.00225107 0.00247583 -0.00027394 0.00295781 0.00341404 -0.00484833 -0.00441143 0.0040393 -0.00216814 -0.00389403 0.00517829 0.000192582 0.00122433 -0.00036838 0.00475663 0.00361612 0.000817433 -0.00135463 -0.000381775
internal_weight=0 23678 16128 17774 12916 9374 16965 7550 3313 15481 6061 1484 5106 3542 4124 3445 14538 8842 3212 943 5893 5094 3059 1936 809 3902 2781 2179 880 472
internal_count=41452 23678 16128 17774 12916 9374 16965 7550 3313 15481 6061 1484 5106 3542 4124 3445 14538 8842 3212 943 5893 5094 3059 1936 809 3902 2781 2179 880 472
shrinkage=0.00693069


Tree=15
num_leaves=31
num_cat=0
split_feature=80 25 15 50 30 15 3 115 15 72 40 50 50 30 9 9 72 30 15 30 125 9 72 9 30 30 112 50 9 30
split_gain=9679.41 767.614 342.542 260.383 173.884 164.847 138.117 134.397 133.288 129.101 125.248 112.72 98.0524 94.8051 90.0439 116.697 75.4101 73.8366 71.7322 67.7193 81.1462 58.6233 56.4607 56.3133 52.2883 70.7152 50.4873 47.6024 43.085 42.7491
threshold=1.0000000180025095e-35 1.0000000180025095e-35 39.500000000000007 3.5000000000000004 -0.062567055225372301 18.500000000000004 1.0000000180025095e-35 1.0000000180025095e-35 99.500000000000014 0.13835616409778598 152.50000000000003 2.5000000000000004 1.5000000000000002 -0.070476278662681566 51.530889511108406 51.491022109985359 0.058904109522700317 -0.21826124191284177 28.500000000000004 -0.21826124191284177 1.0000000180025095e-35 51.519502639770515 0.2205479443073273 51.572048187255866 -0.20229924470186231 -0.074634745717048631 1.0000000180025095e-35 3.5000000000000004 51.43750190734864 -0.12204390764236449
decision_type=2 2 2 2 2 2 2 2 2 2 2 2 2 2 2 2 2 2 2 2 2 2 2 2 2 2 2 2 2 2
left_child=3 2 4 5 6 -1 11 12 9 -3 14 17 -7 16 15 29 -14 -2 -5 -18 -21 -9 -8 28 -17 -26 27 -6 -13 -4
right_child=1 8 10 18 26 7 22 21 -10 -11 -12 23 13 -15 -16 24 19 -19 -20 20 -22 -23 -24 -25 25 -27 -28 -29 -30 -31
leaf_value=-0.15813768227716474 -0.097350922658408445 0.1792366012825026 0.085592063679510041 -0.12915343461696213 -0.094641601061703981 -0.19509239899553205 0.057388011787724909 0.0067076410084856855 0.96035706814509469 0.45371795587670638 0.35003023298894037 -0.025558740052804053 -0.12983745484525105 -0.15995863182317202 0.045575502145105279 0.048438168509473155 -0.12836953897680314 0.00247425786804368 0.032796295895867772 -0.089370269853181666 0.24938815038368992 -0.13366919958329532 0.18277751120241553 -0.046282937783146183 0.23359299469347516 0.071514212846032238 0.025804504626362048 -0.020300390658480143 0.078123114823230672 -0.0086956524279521198
leaf_weight=6365 371 2665 1043 554 673 3082 953 489 1852 3320 393 257 1697 2090 1467 433 642 2046 544 1944 120 247 802 210 2339 655 543 609 2592 455
leaf_count=6365 371 2665 1043 554 673 3082 953 489 1852 3320 393 257 1697 2090 1467 433 642 2046 544 1944 120 247 802 210 2339 655 543 609 2592 455
internal_value=0 0.002668 0.0017501 -0.00440893 0.000827555 -0.00463404 0.00133211 -0.00406786 0.00452335 0.00399755 0.00298142 0.000765028 -0.00429727 -0.00379195 0.00273724 0.00320674 -0.00318855 -0.000404827 -0.000990152 -0.0024374 -0.00179793 -0.00108325 0.00310153 0.00168936 0.00394437 0.00428484 -0.00117158 -0.00195614 0.00195635 0.00151925
internal_weight=0 23678 15841 17774 9056 16676 7231 10311 7837 5985 6785 5476 9575 6493 6392 4925 4403 2417 1098 2706 2064 736 1755 3059 3427 2994 1825 1282 2849 1498
internal_count=41452 23678 15841 17774 9056 16676 7231 10311 7837 5985 6785 5476 9575 6493 6392 4925 4403 2417 1098 2706 2064 736 1755 3059 3427 2994 1825 1282 2849 1498
shrinkage=0.00724791


Tree=16
num_leaves=31
num_cat=0
split_feature=80 25 15 15 30 9 9 77 40 40 117 50 72 102 115 50 30 72 30 30 125 125 40 30 6 6 15 40 78 3
split_gain=8922.09 711.395 310.528 246.286 179.285 166.733 169.533 138.308 137.6 131.625 112.162 109.016 93.4936 84.3252 86.5345 77.9575 66.9623 72.6915 62.8708 63.1528 61.9589 59.4919 59.4867 56.6519 54.4553 53.4538 51.7383 49.6495 48.9374 45.9995
threshold=1.0000000180025095e-35 1.0000000180025095e-35 39.500000000000007 38.500000000000007 -0.068494137376546846 51.549203872680671 51.480049133300788 1.0000000180025095e-35 3.5000000000000004 152.50000000000003 1.0000000180025095e-35 1.5000000000000002 0.039726026356220252 1.0000000180025095e-35 1.0000000180025095e-35 3.5000000000000004 -0.22747328132390973 0.18219177424907687 -0.2200084179639816 -0.052438855171203606 1.0000000180025095e-35 1.0000000180025095e-35 2.5000000000000004 -0.16826900094747541 3.5000000000000004 1.5000000000000002 69.500000000000014 14.500000000000002 410.00000000000006 1.0000000180025095e-35
decision_type=2 2 2 2 2 2 2 2 2 2 2 2 2 2 2 2 2 2 2 2 2 2 2 2 2 2 2 2 2 2
left_child=3 2 5 4 7 6 -2 11 12 13 22 -1 24 14 29 16 -13 -18 -12 25 -19 -9 -8 -16 -3 -20 -5 -7 -10 -4
right_child=1 8 9 26 -6 27 10 21 28 -11 18 15 -14 -15 23 -17 17 20 19 -21 -22 -23 -24 -25 -26 -27 -28 -29 -30 -31
leaf_value=-0.23759740869666504 -0.028339337368202135 0.11639087247935213 0.068655760001985588 -0.047438148066068463 -0.23759740869666504 -0.038674948787974152 0.088619154202911901 -0.084303144201645697 0.63343834407112842 0.44083744262675512 -0.085628894982360204 -0.20204071101622167 0.4502243781653455 0.26884116044824957 0.11556447040537844 -0.063452128693076829 -0.15856402224499927 -0.11621389877498824 0.040503081688372987 -0.03803430172379741 0.14059776596898785 1.3089985807336386 0.29363345186379236 0.39958131533118901 0.61570279171282394 0.24695043159371396 0.32191947008481153 -0.17244791374554175 1.3536290657094803 0.15333037738269739
leaf_weight=3090 1852 1453 3234 680 5294 1352 1295 454 2303 393 298 1342 2693 822 478 561 3317 2695 2099 453 124 88 1082 702 287 513 129 112 1101 1156
leaf_count=3090 1852 1453 3234 680 5294 1352 1295 454 2303 393 298 1342 2693 822 478 561 3317 2695 2099 453 124 88 1082 702 287 513 129 112 1101 1156
internal_value=0 0.00338847 0.00221701 -0.00561901 -0.005866 0.00105254 0.00162507 -0.00520074 0.00575636 0.00377123 0.00244066 -0.00543157 0.00464067 0.00343939 0.00301542 -0.00484197 -0.00510114 -0.00467591 0.00131144 0.00172109 -0.00354146 -0.000460931 0.0040383 0.00532547 0.00290468 0.00229548 -0.000439456 -0.00191648 0.00720931 0.0023945
internal_weight=0 23678 15841 17774 16965 9056 7592 11671 7837 6785 5740 11129 4433 6392 5570 8039 7478 6136 3363 3065 2819 542 2377 1180 1740 2612 809 1464 3404 4390
internal_count=41452 23678 15841 17774 16965 9056 7592 11671 7837 6785 5740 11129 4433 6392 5570 8039 7478 6136 3363 3065 2819 542 2377 1180 1740 2612 809 1464 3404 4390
shrinkage=0.00960864


Tree=17
num_leaves=31
num_cat=0
split_feature=80 6 15 40 15 102 30 72 3 77 25 50 115 102 75 50 78 30 72 88 41 72 30 125 125 9 72 6 9 9
split_gain=8419.33 708.207 253.105 241.594 235.41 184.838 161.836 159.435 163.561 132.552 125.072 109.996 97.2241 102.527 95.8347 76.276 75.0296 65.8792 64.2339 58.6575 56.4826 55.3538 54.0508 53.6687 53.0715 50.6366 50.5487 48.5206 47.3576 44.8601
threshold=1.0000000180025095e-35 1.5000000000000002 60.500000000000007 3.5000000000000004 38.500000000000007 1.0000000180025095e-35 -0.068494137376546846 0.045205479487776763 1.0000000180025095e-35 1.0000000180025095e-35 1.5000000000000002 1.5000000000000002 1.0000000180025095e-35 1.0000000180025095e-35 1.0000000180025095e-35 3.5000000000000004 410.00000000000006 -0.21826124191284177 0.13287670910358432 1.0000000180025095e-35 1.0000000180025095e-35 0.42054793238639837 -0.062567055225372301 1.0000000180025095e-35 1.0000000180025095e-35 51.563795089721687 0.21506848931312564 1.5000000000000002 51.480829238891609 51.530889511108406
decision_type=2 2 2 2 2 2 2 2 2 2 2 2 2 2 2 2 2 2 2 2 2 2 2 2 2 2 2 2 2 2
left_child=4 2 5 10 6 7 9 25 14 11 12 -1 13 19 22 17 21 -13 -19 26 23 28 -9 -20 -11 -2 -3 -6 -5 -30
right_child=1 3 -4 16 27 -7 -8 8 -10 24 -12 15 -14 -15 -16 -17 -18 18 20 -21 -22 -23 -24 -25 -26 -27 -28 -29 29 -31
leaf_value=-0.23234526172612549 -0.02194981666223482 0.065276260454878249 0.24860963756662335 0.004528097547111842 -0.046503166270616431 0.1716957629878304 -0.23234526172612549 0.053395045479573487 0.1529676997325779 -0.08243960324025873 0.89136051080759182 -0.19079516857074844 0.51106822718411382 0.53187443134487156 -0.067916117256006367 -0.062049504365994664 1.1688903337312211 -0.15505892699316576 -0.090230905557559249 0.36825530390919037 -0.13968481899440144 0.61596828492256006 -0.042982145429273373 0.3160722860138121 1.2800628572004842 -0.13684289886672577 0.21225298363761144 0.32886812424852846 0.39838225565927887 0.097981984061800947
leaf_weight=3090 3016 3223 1415 195 664 1014 5294 2678 1579 454 1038 1568 649 441 923 561 1296 2917 1533 446 1364 1863 443 96 88 263 1709 145 1205 282
leaf_count=3090 3016 3223 1415 195 664 1014 5294 2678 1579 454 1038 1568 649 441 923 561 1296 2917 1533 446 1364 1863 443 96 88 263 1709 145 1205 282
internal_value=0 0.00331754 0.00153193 0.00495621 -0.0056894 0.000973518 -0.00593797 0.000517761 0.00152856 -0.00528734 0.0038451 -0.00551996 0.00333363 0.00292865 0.000474484 -0.00491033 0.00667899 -0.00517421 -0.00469603 0.0025527 -0.00367806 0.00593447 0.0013025 -0.00243475 -0.000510963 -0.00121561 0.00224207 -0.000476812 0.00463373 0.00523473
internal_weight=0 23678 11331 12347 17774 9916 16965 8902 5623 11671 7506 11129 6468 5819 4044 8039 4841 7478 5910 5378 2993 3545 3121 1629 542 3279 4932 809 1682 1487
internal_count=41452 23678 11331 12347 17774 9916 16965 8902 5623 11671 7506 11129 6468 5819 4044 8039 4841 7478 5910 5378 2993 3545 3121 1629 542 3279 4932 809 1682 1487
shrinkage=0.00989078


Tree=18
num_leaves=31
num_cat=0
split_feature=80 50 40 102 115 15 6 50 30 30 30 72 125 3 9 9 30 9 78 9 6 50 30 9 9 88 30 9 117 15
split_gain=7803.97 670.964 314.978 261.491 239.672 222.029 184.177 166.733 156.536 145.029 139.385 136.811 134.136 90.1434 70.9738 91.106 116.911 68.2376 64.6093 62.8246 60.0876 55.0809 54.7883 61.991 70.2417 52.4202 45.8954 45.8918 45.2385 44.3585
threshold=1.0000000180025095e-35 4.5000000000000009 91.000000000000014 1.0000000180025095e-35 1.0000000180025095e-35 38.500000000000007 1.0000000180025095e-35 1.5000000000000002 -0.16581461578607556 -0.10461402684450148 -0.070948462933301912 0.039726026356220252 1.0000000180025095e-35 1.0000000180025095e-35 51.548616409301765 51.48767280578614 -0.2103396877646446 51.564914703369148 367.50000000000006 51.526542663574226 1.0000000180025095e-35 6.5000000000000009 -0.19696793705224988 51.480049133300788 51.528455734252937 1.0000000180025095e-35 -0.21677087992429731 51.497385025024421 1.0000000180025095e-35 59.500000000000007
decision_type=2 2 2 2 2 2 2 2 2 2 2 2 2 2 2 2 2 2 2 2 2 2 2 2 2 2 2 2 2 2
left_child=5 2 3 4 6 7 26 -1 20 18 12 17 14 25 15 -9 -17 27 22 -18 -6 -11 -3 -24 -25 -13 -2 -8 -5 -7
right_child=1 9 -4 28 8 29 11 10 -10 21 -12 13 -14 -15 -16 16 19 -19 -20 -21 -22 -23 23 24 -26 -27 -28 -29 -30 -31
leaf_value=-0.23205161292657006 -0.13936112006122928 0.22644845703449604 0.36191429931016167 0.3778062290498434 -0.053773327415620284 -0.061397392496538278 -0.030246307126218782 -0.16320856837222367 0.38074455937975304 0.12355507024001489 -0.18651403384546569 0.02599402123973435 0.058078936696207062 0.15603568179433436 -0.18906125700291032 -0.16997534592811286 -0.028246528188590234 -0.1068347571998519 1.2086692026292027 -0.099333779661463839 0.10279173223507847 0.39842777899840587 0.19653630454999926 0.84271757528348068 0.26741067380997086 0.19133468260486319 -0.044695117536377303 0.033203279628124076 0.1511739084511913 0.097281681687087312
leaf_weight=4663 216 1009 944 705 170 586 1575 2654 1163 1714 4066 3585 397 1784 1469 899 1667 341 1420 1150 842 742 469 1611 585 545 1198 2113 947 223
leaf_count=4663 216 1009 944 705 170 586 1575 2654 1163 1714 4066 3585 397 1784 1469 899 1667 341 1420 1150 842 742 469 1611 585 545 1198 2113 947 223
internal_value=0 0.00306948 0.00197036 0.00163784 0.00120027 -0.00529711 0.000644488 -0.00553002 0.00410237 0.00541737 -0.00494757 0.00110277 -0.00423385 0.00202671 -0.00450792 -0.00407186 -0.00310737 -0.000253437 0.00633574 -0.00215115 0.00135789 0.00351255 0.00566759 0.00638465 0.00705727 0.00125237 -0.00257808 0.000124203 0.00522205 -0.00041286
internal_weight=0 23678 16128 15184 13532 17774 11357 16965 2175 7550 12302 9943 8236 5914 7839 6370 3716 4029 5094 2817 1012 2456 3674 2665 2196 4130 1414 3688 1652 809
internal_count=41452 23678 16128 15184 13532 17774 11357 16965 2175 7550 12302 9943 8236 5914 7839 6370 3716 4029 5094 2817 1012 2456 3674 2665 2196 4130 1414 3688 1652 809
shrinkage=0.00954296


Tree=19
num_leaves=31
num_cat=0
split_feature=80 6 15 15 15 72 3 30 50 30 72 77 30 86 9 9 9 9 62 9 9 9 9 30 74 30 30 30 59 72
split_gain=7226.87 623.633 236.569 226.684 207.249 176.485 171.885 160.398 143.664 124.075 123.541 112.315 103.659 97.8471 76.154 88.8747 73.837 82.6774 72.4562 66.1527 69.9411 59.5557 88.8179 85.9108 57.2931 52.3538 52.1428 55.5123 49.6301 48.1485
threshold=1.0000000180025095e-35 1.5000000000000002 110.50000000000001 60.500000000000007 38.500000000000007 0.22328767180442813 1.0000000180025095e-35 -0.068494137376546846 1.5000000000000002 -0.075242575258016572 0.12739725410938266 1.0000000180025095e-35 -0.061412157490849488 1.0000000180025095e-35 51.562646865844734 51.466650009155281 51.480829238891609 51.530889511108406 2.5000000000000004 51.530889511108406 51.475259780883796 51.546846389770515 51.48767280578614 -0.20933136343955991 1.0000000180025095e-35 -0.19203549623489377 0.04793109558522702 -0.19866371154785153 1.0000000180025095e-35 0.064383558928966536
decision_type=2 2 2 2 2 2 2 2 2 2 2 2 2 2 2 2 2 2 2 2 2 2 2 2 2 2 2 2 2 2
left_child=4 3 5 6 7 12 9 8 -1 13 -8 18 16 14 15 -2 -3 -18 21 20 -7 22 -10 -24 -25 -17 27 -22 -12 -27
right_child=1 2 -4 -5 -6 19 10 -9 11 -11 28 -13 -14 -15 -16 25 17 -19 -20 -21 26 -23 23 24 -26 29 -28 -29 -30 -31
leaf_value=-0.17793626288563938 -0.036565015111270367 0.059182868001659637 0.96520212403817629 0.19271390071813801 -0.015311233137765858 0.17063499570907772 0.017809758312155144 -0.17994824665755449 -0.14054523260085361 -0.05435786738002004 0.14821681441272311 0.052541144411699624 0.0037639009318034132 -0.10229707118857884 -0.06588661433072171 0.0011519124286934453 0.28563906583633442 0.086193764247016219 0.19118326974155164 0.16685336784669164 0.18207641119284171 -0.15650388370088605 -0.14267518404062834 -0.078159408485309723 -0.018899920715015901 0.020175062104816534 -0.025186385536725576 0.5231017048235912 -0.01292745177668834 0.10866071730960322
leaf_weight=3232 697 1215 1480 1415 809 738 1344 5294 2654 1572 1413 400 1110 231 356 1180 2198 1265 107 1022 499 1596 896 1522 1264 1055 82 2738 165 1903
leaf_count=3232 697 1215 1480 1415 809 738 1344 5294 2654 1572 1413 400 1110 231 356 1180 2198 1265 107 1022 499 1596 896 1522 1264 1055 82 2738 165 1903
internal_value=0 0.00257989 0.00389092 0.0011513 -0.00453471 0.00346015 0.000700742 -0.00473355 -0.00418131 -1.68799e-05 0.00241842 -0.00360232 0.00245347 0.000587895 0.000826864 0.00110401 0.00300319 0.00363072 -0.00381932 0.00460736 0.00509039 -0.0039123 -0.00354557 -0.00269792 -0.00196743 0.00157324 0.00561249 0.00578072 0.00401863 0.00217232
internal_weight=0 23678 12347 11331 17774 10867 9916 16965 11671 6994 2922 8439 5788 5422 5191 4835 4678 3463 8039 5079 4057 7932 6336 3682 2786 4138 3319 3237 1578 2958
internal_count=41452 23678 12347 11331 17774 10867 9916 16965 11671 6994 2922 8439 5788 5422 5191 4835 4678 3463 8039 5079 4057 7932 6336 3682 2786 4138 3319 3237 1578 2958
shrinkage=0.00843272


Tree=20
num_leaves=31
num_cat=0
split_feature=80 50 15 50 72 78 115 115 9 9 50 102 77 40 6 15 9 15 72 9 30 74 9 9 9 88 3 6 40 117
split_gain=8024.43 669.849 304.239 229.165 203.914 192.322 138.74 130.224 127.33 135.783 122.251 109.749 102.746 95.3873 85.1222 80.4848 77.5997 70.7966 70.2088 66.5104 66.4186 61.3235 56.4975 50.9964 53.5749 50.7397 47.5661 44.0862 44.0212 42.3396
threshold=1.0000000180025095e-35 3.5000000000000004 89.500000000000014 3.5000000000000004 0.3876712322235108 227.50000000000003 1.0000000180025095e-35 1.0000000180025095e-35 51.544589996337898 51.486188888549812 1.5000000000000002 1.0000000180025095e-35 1.0000000180025095e-35 3.5000000000000004 2.5000000000000004 18.500000000000004 51.522996902465827 28.500000000000004 0.058904109522700317 51.464820861816413 -0.23535767942667005 1.0000000180025095e-35 51.52044868469239 51.562646865844734 51.496595382690437 1.0000000180025095e-35 1.0000000180025095e-35 1.0000000180025095e-35 97.500000000000014 1.0000000180025095e-35
decision_type=2 2 2 2 2 2 2 2 2 2 2 2 2 2 2 2 2 2 2 2 2 2 2 2 2 2 2 2 2 2
left_child=3 5 4 6 7 8 10 11 9 27 -1 14 15 -7 23 -12 19 -5 -17 -6 -11 -22 -8 24 -3 26 -20 -2 -4 -23
right_child=1 2 28 17 16 13 22 -9 -10 20 12 -13 -14 -15 -16 18 -18 -19 25 -21 21 29 -24 -25 -26 -27 -28 -29 -30 -31
leaf_value=-0.13914419715076787 -0.099275056616530119 0.0079484593286928244 0.44204352975116934 -0.091002569748087361 0.077819943061738658 0.034763610075530964 -0.012028049660741991 0.22814593079662904 -0.037624874598128612 -0.06735390593039968 -0.10340512400737351 0.19321219599384978 -0.029282777303972229 0.17216975781610525 0.15201042560948633 -0.10494850794001181 0.099536100753538831 0.03151876323907641 -0.084635108711849524 0.25126207558242236 -0.0011372296265744594 0.093262124974848357 -0.091129027090711828 -0.033464647344783882 0.057169316073270714 0.014453834082061003 -0.038187481732483347 -0.0086907883539222817 0.51853708432259915 0.02794220636374449
leaf_weight=4496 243 1789 2080 554 380 924 720 1010 1234 236 4482 597 482 786 1271 2455 1407 544 2850 2944 918 1109 351 398 2807 217 623 1207 728 1610
leaf_count=4496 243 1789 2080 554 380 924 720 1010 1234 236 4482 597 482 786 1271 2455 1407 544 2850 2944 918 1109 351 398 2807 217 623 1207 728 1610
internal_value=0 0.00183608 0.00252928 -0.00316653 0.00215608 0.000543852 -0.00333049 0.0016012 0.000105556 0.000483106 -0.00346495 0.00132353 -0.0031481 0.0022245 0.00110386 -0.00326335 0.00307937 -0.000676478 -0.00284513 0.00354824 0.00103301 0.00122072 -0.0013713 0.000772961 0.000940294 -0.00235452 -0.00251946 -0.000985707 0.00420427 0.00164528
internal_weight=0 23678 15411 17774 12603 8267 16676 7872 6557 5323 15605 6862 11109 1710 6265 10627 4731 1098 6145 3324 3873 3637 1071 4994 4596 3690 3473 1450 2808 2719
internal_count=41452 23678 15411 17774 12603 8267 16676 7872 6557 5323 15605 6862 11109 1710 6265 10627 4731 1098 6145 3324 3873 3637 1071 4994 4596 3690 3473 1450 2808 2719
shrinkage=0.00562707


Tree=21
num_leaves=31
num_cat=0
split_feature=80 50 78 50 102 6 72 30 50 3 40 15 74 78 30 9 77 72 15 30 9 9 40 3 9 30 115 50 78 30
split_gain=6969.8 625.14 315.333 209.481 209.264 189.327 160.934 151.74 124.754 116.632 103.385 98.7258 87.7816 86.7059 79.9874 74.2692 73.178 66.6928 63.9265 58.9574 61.5145 81.1237 58.6246 55.3451 53.329 52.262 44.1462 44.0645 42.9092 41.8532
threshold=1.0000000180025095e-35 5.5000000000000009 282.50000000000006 3.5000000000000004 1.0000000180025095e-35 1.0000000180025095e-35 0.039726026356220252 -0.068494137376546846 1.5000000000000002 1.0000000180025095e-35 3.5000000000000004 14.500000000000002 1.0000000180025095e-35 307.50000000000006 -0.049330929294228547 51.563795089721687 1.0000000180025095e-35 0.3876712322235108 28.500000000000004 -0.17830674350261685 51.491022109985359 51.515153884887702 2.5000000000000004 1.0000000180025095e-35 51.497385025024421 -0.080973017960786806 1.0000000180025095e-35 2.5000000000000004 169.50000000000003 -0.16735740005969998
decision_type=2 2 2 2 2 2 2 2 2 2 2 2 2 2 2 2 2 2 2 2 2 2 2 2 2 2 2 2 2 2
left_child=3 2 4 7 5 19 15 8 -1 14 -4 -10 -13 17 26 24 28 25 -5 -2 -21 -22 -11 -9 -7 -3 -8 -6 -14 -28
right_child=1 13 10 18 27 6 9 23 11 22 -12 12 16 -15 -16 -17 -18 -19 -20 20 21 -23 -24 -25 -26 -27 29 -29 -30 -31
leaf_value=-0.1736241040042176 -0.098162392037595067 0.31364570462354624 0.12139245968403158 -0.12581248862147987 0.059744045977097378 -0.022994895508716157 0.045530731436727673 -0.1866317451391733 -0.13328299718427145 0.095299070706568415 0.37589713414087739 -0.11492518318745892 -0.08109547150071135 0.91506657089110888 -0.046741499907186873 -0.094412819427444089 0.13293601780736058 0.41765808814942718 0.046814464715376196 -0.14312698111632718 0.097033114275309126 -0.026311319794705485 0.28626222429152159 -0.11626315807511635 0.035772117295259323 0.057137212928625156 0.059709938018664997 0.24456967999752005 0.012655089175630952 0.34847392406678845
leaf_weight=3326 456 1608 1711 554 507 1627 3381 4008 2483 1119 1808 2654 2525 1617 594 368 247 1815 544 235 267 736 975 1104 2500 669 383 887 329 415
leaf_count=3326 456 1608 1711 554 507 1627 3381 4008 2483 1119 1808 2654 2525 1617 594 368 247 1815 544 235 267 736 975 1104 2500 669 383 887 329 415
internal_value=0 0.00253053 0.00175279 -0.0045053 0.00119766 0.000863745 0.00125859 -0.00474186 -0.00420329 0.00207626 0.00403232 -0.00364286 -0.00303224 0.00497844 0.00134324 9.44578e-06 -0.00206201 0.00432059 -0.000912593 -0.00178457 -0.00082311 9.31299e-05 0.00374708 -0.00596018 0.00033539 0.0033527 0.00175769 0.00432507 -0.00244577 0.00355419
internal_weight=0 23678 17969 17774 14450 13056 11362 16676 11564 6867 3519 8238 5755 5709 4773 4495 3101 4092 1098 1694 1238 1003 2094 5112 4127 2277 4179 1394 2854 798
internal_count=41452 23678 17969 17774 14450 13056 11362 16676 11564 6867 3519 8238 5755 5709 4773 4495 3101 4092 1098 1694 1238 1003 2094 5112 4127 2277 4179 1394 2854 798
shrinkage=0.00849176


Tree=22
num_leaves=31
num_cat=0
split_feature=80 25 15 15 9 9 50 125 15 30 72 30 30 30 40 15 74 74 9 117 58 30 30 40 6 25 9 9 115 30
split_gain=6486.08 610.289 236.769 196.992 188.251 180.203 154.231 146.953 141.696 123.131 120.584 114.543 142.761 87.1171 85.4661 75.5329 68.6696 59.9348 59.487 56.3763 54.7101 53.2355 49.3388 46.6779 43.3647 43.3043 41.3461 51.2647 40.76 50.7965
threshold=1.0000000180025095e-35 1.0000000180025095e-35 60.500000000000007 38.500000000000007 51.545686721801765 51.484525680541999 1.5000000000000002 1.0000000180025095e-35 99.500000000000014 -0.068494137376546846 0.20958904176950457 -0.19203549623489377 -0.074634745717048631 -0.12281896919012068 152.50000000000003 14.500000000000002 1.0000000180025095e-35 1.0000000180025095e-35 51.522647857666023 1.0000000180025095e-35 1.0000000180025095e-35 -0.060366908088326447 -0.16581461578607556 11.500000000000002 1.5000000000000002 1.5000000000000002 51.461172103881843 51.54399490356446 1.0000000180025095e-35 -0.12768407911062238
decision_type=2 2 2 2 2 2 2 2 2 2 2 2 2 2 2 2 2 2 2 2 2 2 2 2 2 2 2 2 2 2
left_child=3 2 4 6 5 13 28 9 10 15 21 18 16 -2 -4 -8 -13 -17 -7 -18 -9 25 -21 -6 -5 -3 -19 -28 -1 -30
right_child=1 8 14 24 23 11 7 20 -10 -11 -12 12 -14 -15 -16 17 19 26 -20 22 -22 -23 -24 -25 -26 -27 27 -29 29 -31
leaf_value=-0.18136341696752084 0.028274852870919062 0.15304125789548018 0.13785213589340067 -0.03173293334934113 -0.02597575312204279 0.030244326857020134 -0.12616828688949153 0.13599265349157683 0.8638234635427231 -0.14511739691698075 0.43258812436171978 0.036433097922689506 0.022784077854306539 -0.060887869397611885 0.30000327154465811 -0.11120735969354957 0.22713305000075135 -0.12685624734447615 -0.079859387541637808 0.027997198893345655 -0.097981011430768469 0.0062719272319761979 0.14146732706842483 -0.10521077627683793 0.25846120479520457 0.57169269162103309 -0.029008603529327499 -0.099534322017943863 -0.13498673525354168 0.050680197768235118
leaf_weight=4386 1471 2066 2440 664 1993 1202 2578 292 1852 3716 2944 842 1988 1226 381 2559 1493 593 431 630 258 551 1549 195 145 424 1712 594 243 34
leaf_count=4386 1471 2066 2440 664 1993 1202 2578 292 1852 3716 2944 842 1988 1226 381 2559 1493 593 431 630 258 551 1549 195 145 424 1712 594 243 34
internal_value=0 0.00234892 0.00141432 -0.00426627 0.000943336 0.00139061 -0.00445654 -0.0039707 0.00423802 -0.00416639 0.00361895 0.00200527 0.00249744 -0.000463382 0.00358812 -0.0035903 0.00331131 -0.00303884 4.56142e-05 0.00380013 0.000210673 0.00246306 0.00295126 -0.00127097 -0.000276222 0.00297819 -0.00222399 -0.00172276 -0.00573831 -0.00265922
internal_weight=0 23678 15841 17774 13020 10832 16965 12302 7837 11752 5985 8135 6502 2697 2821 8036 4514 5458 1633 3672 550 3041 2179 2188 809 2490 2899 2306 4663 277
internal_count=41452 23678 15841 17774 13020 10832 16965 12302 7837 11752 5985 8135 6502 2697 2821 8036 4514 5458 1633 3672 550 3041 2179 2188 809 2490 2899 2306 4663 277
shrinkage=0.00827644


Tree=23
num_leaves=31
num_cat=0
split_feature=80 6 15 50 15 72 115 102 50 15 50 30 3 74 6 77 9 30 30 72 15 126 115 30 78 9 9 40 40 9
split_gain=6085.01 558.483 216.234 199.301 185.887 164.819 164.384 161.409 143.118 135.287 123.328 119.152 112.082 99.1268 91.9843 78.0437 75.574 71.3969 62.5147 67.9979 60.1922 54.0895 47.5169 47.6754 46.7765 45.6584 44.9942 44.6979 43.4117 43.2613
threshold=1.0000000180025095e-35 1.5000000000000002 110.50000000000001 3.5000000000000004 60.500000000000007 0.89726027846336376 1.0000000180025095e-35 1.0000000180025095e-35 1.5000000000000002 18.500000000000004 7.5000000000000009 -0.063475150614976869 1.0000000180025095e-35 1.0000000180025095e-35 1.0000000180025095e-35 1.0000000180025095e-35 51.562646865844734 -0.18566425144672391 0.04793109558522702 0.34931507706642156 28.500000000000004 1.0000000180025095e-35 1.0000000180025095e-35 -0.12768407911062238 110.50000000000001 51.552286148071296 51.43750190734864 18.500000000000004 97.500000000000014 51.572048187255866
decision_type=2 2 2 2 2 2 2 2 2 2 2 2 2 2 2 2 2 2 2 2 2 2 2 2 2 2 2 2 2 2
left_child=3 4 6 8 5 11 7 10 22 -10 16 12 14 -11 -2 21 18 -8 19 26 -5 24 -1 -24 -15 -13 -3 -7 -6 -16
right_child=1 2 -4 20 28 27 17 -9 9 13 -12 25 -14 15 29 -17 -18 -19 -20 -21 -22 -23 23 -25 -26 -27 -28 -29 -30 -31
leaf_value=-0.19433294568464324 -0.057217918517106961 -0.044172463013014106 0.96513319759891014 -0.12461266608398903 0.14431691343443726 0.10257907781233901 0.16879380308698627 0.59298491333911441 -0.13837447621400412 -0.13481428507314369 0.40806426670066259 -0.044634201913517822 0.083469384504678112 -0.081615472569389752 0.019127310997858731 0.087538108838084328 -0.036302374742143782 0.74926857602791719 -0.096136013463151662 0.26822886643948218 0.048644649767113343 -0.13967988327529382 -0.13155852413454408 0.05442827002770078 0.020329673345265607 -0.1409879640047271 0.10354900861747343 0.14104492831787446 0.32032976788195411 -0.093912258351771069
leaf_weight=4496 1123 372 1480 554 1135 927 401 963 4877 3241 889 1232 1905 2166 3952 308 688 1313 174 2059 544 922 262 34 370 268 4008 322 280 187
leaf_count=4496 1123 372 1480 554 1135 927 401 963 4877 3241 889 1232 1905 2166 3952 308 688 1313 174 2059 544 922 262 34 370 268 4008 322 280 187
internal_value=0 0.00251315 0.0038897 -0.00473028 0.00101317 0.000560475 0.00343275 0.00293478 -0.00498451 -0.00443411 0.00250873 0.000102556 0.000604435 -0.00360126 -9.95734e-05 -0.00256889 0.00210809 0.00609199 0.00241513 0.00256467 -0.000869168 -0.00297087 -0.0063495 -0.0027184 -0.0022653 -0.00229542 0.00190545 0.00373804 0.00418556 0.000544788
internal_weight=0 23678 12347 17774 11331 9916 10867 9153 16676 11884 8190 8667 7167 7007 5262 3766 7301 1714 6613 6439 1098 3458 4792 296 2536 1500 4380 1249 1415 4139
internal_count=41452 23678 12347 17774 11331 9916 10867 9153 16676 11884 8190 8667 7167 7007 5262 3766 7301 1714 6613 6439 1098 3458 4792 296 2536 1500 4380 1249 1415 4139
shrinkage=0.00935634


Tree=24
num_leaves=31
num_cat=0
split_feature=80 50 40 102 115 50 15 6 30 30 125 72 25 35 74 30 6 115 35 50 30 30 9 9 115 102 29 0 117 9
split_gain=5698.06 530.718 276.099 244.401 240.856 216.296 181.753 160.408 152.348 144.403 113.507 101.616 97.8814 67.1889 66.1142 62.1137 56.3928 49.9363 48.7127 47.3884 46.8545 46.5258 45.643 44.5404 44.4892 46.9596 43.5401 43.4292 42.7806 41.7548
threshold=1.0000000180025095e-35 5.5000000000000009 91.000000000000014 1.0000000180025095e-35 1.0000000180025095e-35 1.5000000000000002 30.500000000000004 1.0000000180025095e-35 -0.16826900094747541 -0.070948462933301912 1.0000000180025095e-35 0.017808218486607078 1.5000000000000002 1.0000000180025095e-35 1.0000000180025095e-35 -0.074634745717048631 1.0000000180025095e-35 1.0000000180025095e-35 1.0000000180025095e-35 2.5000000000000004 0.032227128744125373 -0.12768407911062238 51.563795089721687 51.391960144042976 1.0000000180025095e-35 1.0000000180025095e-35 1.0000000180025095e-35 173013384.00000003 1.0000000180025095e-35 51.560319900512702
decision_type=2 2 2 2 2 2 2 2 2 2 2 2 2 2 2 2 2 2 2 2 2 2 2 2 2 2 2 2 2 2
left_child=5 2 3 4 7 17 9 -2 16 10 14 22 15 28 -7 29 -6 -1 -8 -5 23 -19 -9 -15 25 -16 -4 -12 -13 -3
right_child=1 12 26 19 8 6 18 11 -10 -11 27 13 -14 20 24 -17 -18 21 -20 -21 -22 -23 -24 -25 -26 -27 -28 -29 -30 -31
leaf_value=-0.16285141198615039 -0.053068207073203796 0.33198683082735986 0.25585846125726508 0.0722191376022637 -0.047010973019995982 -0.10417029410477281 -0.061334569011075986 -0.0033828508473592919 0.3185023644108409 -0.13032024170887418 -0.02074657608174758 0.054069096434316309 0.93356530899696111 -0.14226586688097745 -0.084067097700703614 0.081884107225329239 0.072059689972844967 -0.11024631638575308 0.042022000731572175 0.26514580972841029 -0.10221686206555312 0.045611003295129793 -0.078138091177155408 0.098669145657981044 0.003706387874211218 0.074499476328377751 -0.050716110910336808 0.51813858530003276 -0.0077086349791132078 0.038189888355014641
leaf_weight=4496 1426 2900 989 621 158 3680 449 3542 1442 4004 262 1435 1542 59 3441 1058 915 262 484 1225 105 34 359 3470 370 162 45 130 2178 209
leaf_count=4496 1426 2900 989 621 158 3680 449 3542 1442 4004 262 1435 1542 59 3441 1058 915 262 484 1225 105 34 359 3470 370 162 45 130 2178 209
internal_value=0 0.0021116 0.00141513 0.00116233 0.000815539 -0.00407139 -0.00351824 0.000349193 0.00314708 -0.00378998 -0.00315256 0.000682592 0.00430374 0.00126071 -0.00337444 0.00364635 0.000792255 -0.00556994 -8.84598e-06 0.00399699 0.0020531 -0.00228639 -0.000391402 0.00221476 -0.00263615 -0.00291603 0.00555541 0.00117904 0.00046372 0.00423416
internal_weight=0 23678 17969 16935 15089 17774 12982 12574 2515 12049 8045 11148 5709 7247 7653 4167 1073 4792 933 1846 3634 296 3901 3529 3973 3603 1034 392 3613 3109
internal_count=41452 23678 17969 16935 15089 17774 12982 12574 2515 12049 8045 11148 5709 7247 7653 4167 1073 4792 933 1846 3634 296 3901 3529 3973 3603 1034 392 3613 3109
shrinkage=0.0082533


Tree=25
num_leaves=31
num_cat=0
split_feature=80 50 40 74 72 115 50 74 30 35 78 15 30 9 9 30 125 78 72 115 15 6 102 134 41 30 102 6 50 9
split_gain=5232.78 500.42 239.759 199.137 203.698 194.753 161.733 137.13 128.572 120.687 99.7313 91.4381 74.7671 69.088 84.8398 68.277 67.6597 66.9719 61.7219 58.1749 56.888 54.3312 52.1977 51.6708 49.7865 49.3751 49.1803 54.1067 48.5673 48.2661
threshold=1.0000000180025095e-35 4.5000000000000009 91.000000000000014 1.0000000180025095e-35 0.94383561611175548 1.0000000180025095e-35 1.5000000000000002 1.0000000180025095e-35 -0.073275525122880922 1.0000000180025095e-35 109.50000000000001 118.50000000000001 -0.052438855171203606 51.489416122436531 51.530889511108406 -0.16256051510572431 1.0000000180025095e-35 237.50000000000003 0.59041097760200512 1.0000000180025095e-35 28.500000000000004 1.0000000180025095e-35 1.0000000180025095e-35 1.0000000180025095e-35 9.5000000000000018 -0.068494137376546846 1.0000000180025095e-35 3.5000000000000004 2.5000000000000004 51.498113632202156
decision_type=2 2 2 2 2 2 2 2 2 2 2 2 2 2 2 2 2 2 2 2 2 2 2 2 2 2 2 2 2 2
left_child=5 2 3 28 9 6 -1 25 11 17 16 18 13 -11 21 -7 22 -5 19 26 -12 -15 -9 24 -4 -8 27 -3 -2 -17
right_child=1 8 23 4 -6 15 7 10 -10 12 20 -13 -14 14 -16 29 -18 -19 -20 -21 -22 -23 -24 -25 -26 -27 -28 -29 -30 -31
leaf_value=-0.20582520866491372 -0.072923291826214182 0.12747931070914664 0.36970929718263001 -0.0088680586445807827 0.35402891439687179 -0.1029213076058333 -0.12996088130101982 -0.12645383650263892 0.10624139069247479 0.029278205546509117 -0.090990135236759376 1.2391487132958285 -0.025715374852859657 0.035795803400869922 0.036946462593740924 -0.040025945691479138 0.022774934842071121 0.10131211654383615 0.580481438915458 0.69429238241940239 0.097020317567526826 0.26998949950831402 0.094873549947177657 -0.020908655883072835 -0.00081711826302784216 -0.19432777621726779 0.83985868262391083 0.58826508074132899 0.0049686431251181684 0.15776424455798774
leaf_weight=4496 1591 1846 799 4302 1036 632 3834 4934 1657 1276 478 1073 708 365 1021 256 296 1064 1617 645 363 2248 161 60 85 2034 306 406 1573 290
leaf_count=4496 1591 1846 799 4302 1036 632 3834 4934 1657 1276 478 1073 708 365 1021 256 296 1064 1617 645 363 2248 161 60 85 2034 306 406 1573 290
internal_value=0 0.00265532 0.00156316 0.00122934 0.00187449 -0.00522756 -0.00553378 -0.00487304 0.00498836 0.00143551 -0.00373877 0.00574817 0.00256036 0.00304136 0.00381316 -0.000913465 -0.0042874 0.000257828 0.00510284 0.00422 -0.000221954 0.00486189 -0.00458389 0.00693242 0.00760169 -0.00607767 0.00347693 0.00291571 -0.00122157 0.00193059
internal_weight=0 23678 16128 15184 12020 17774 16596 12100 7550 10984 6232 5893 5618 4910 3634 1178 5391 5366 4820 3203 841 2613 5095 944 884 5868 2558 2252 3164 546
internal_count=41452 23678 16128 15184 12020 17774 16596 12100 7550 10984 6232 5893 5618 4910 3634 1178 5391 5366 4820 3203 841 2613 5095 944 884 5868 2558 2252 3164 546
shrinkage=0.0109802


Tree=26
num_leaves=31
num_cat=0
split_feature=80 25 30 78 9 9 30 9 9 25 72 117 40 72 40 40 15 3 72 9 30 9 30 77 50 15 50 50 40 9
split_gain=4774.4 486.084 212.468 194.483 159.152 187.669 202.522 154.033 139.942 134.819 104.337 101.304 92.8643 92.6995 85.4073 82.5614 74.1293 62.0176 58.3673 57.4971 56.7038 49.4309 62.1268 47.4426 46.8554 46.79 42.6924 41.7915 41.583 52.2907
threshold=1.0000000180025095e-35 1.0000000180025095e-35 -0.068494137376546846 242.50000000000003 51.546846389770515 51.48767280578614 -0.19696793705224988 51.545145034790046 51.462137222290046 1.5000000000000002 0.19863013923168185 1.0000000180025095e-35 4.5000000000000009 0.050684932619333274 43.500000000000007 91.000000000000014 29.500000000000004 1.0000000180025095e-35 0.43698629736900335 51.526166915893562 -0.19696793705224988 51.488176345825202 -0.074634745717048631 1.0000000180025095e-35 3.5000000000000004 23.500000000000004 2.5000000000000004 2.5000000000000004 485.50000000000006 51.492612838745124
decision_type=2 2 2 2 2 2 2 2 2 2 2 2 2 2 2 2 2 2 2 2 2 2 2 2 2 2 2 2 2 2
left_child=2 3 4 7 5 25 26 8 -2 10 15 18 -5 -8 19 -3 -13 -4 -10 23 -12 -22 -23 -15 -18 -1 -7 -9 29 -14
right_child=1 9 17 12 -6 6 13 27 11 -11 20 16 28 14 -16 -17 24 -19 -20 -21 21 22 -24 -25 -26 -27 -28 -29 -30 -31
leaf_value=-0.12355947657196716 -0.044569387093068874 0.083326012227368726 -0.1542818650135257 0.060518028502115344 -0.13628903597415115 -0.12137445145929007 -0.063392557978043218 -0.06749386693290127 0.06144744202111399 0.85691601617655122 0.093142076648598041 -0.019766564703735202 0.05306935789353294 0.02266455091113511 -0.24700077057042458 0.43331377256436771 0.0099182644668386472 -0.085793587535024252 0.19758854931219819 -0.030789906058725829 0.14502305108294225 0.67800575790905881 0.16432836000459269 0.47203260038465916 0.081117000903097897 -0.1114220383423732 -0.015079107618910218 -0.011604068816387392 0.34235691141876667 0.22117353432589176
leaf_weight=1829 1333 2591 4294 1906 2558 1512 1512 893 2251 1853 488 1475 311 1446 82 404 1820 1148 1127 868 439 1513 549 144 2145 2191 190 1217 221 1142
leaf_count=1829 1333 2591 4294 1906 2558 1512 1512 893 2251 1853 488 1475 311 1446 82 404 1820 1148 1127 868 439 1513 549 144 2145 2191 190 1217 221 1142
internal_value=0 0.00199556 -0.00397393 0.00111828 -0.00334168 -0.00283577 -0.00182754 0.000597091 0.00104193 0.00376881 0.00313346 0.00143932 0.0029033 -0.000769102 0.000246757 0.00198515 0.000704083 -0.00540665 0.00262336 0.00053831 0.00428408 0.0048137 0.00537838 0.00152201 0.00132387 -0.00427889 -0.0043474 -0.00154298 0.00439932 0.00386424
internal_weight=0 23678 17774 15841 12332 9774 5754 12261 10151 7837 5984 8818 3580 4052 2540 2995 5440 5442 3378 2458 2989 2501 2062 1590 3965 4020 1702 2110 1674 1453
internal_count=41452 23678 17774 15841 12332 9774 5754 12261 10151 7837 5984 8818 3580 4052 2540 2995 5440 5442 3378 2458 2989 2501 2062 1590 3965 4020 1702 2110 1674 1453
shrinkage=0.00870503


Tree=27
num_leaves=31
num_cat=0
split_feature=80 50 40 102 50 115 15 6 125 30 30 30 9 9 30 30 30 9 15 74 30 9 9 6 58 115 50 35 29 30
split_gain=5821.61 523.921 258.907 213.879 211.343 199.582 181.249 156.878 145.609 135.913 130.798 118.242 101.693 109.122 115.162 82.5615 79.107 76.1302 69.7256 62.4028 55.2614 57.0353 68.455 53.6783 51.6542 50.146 49.0616 48.7813 48.3066 46.5258
threshold=1.0000000180025095e-35 4.5000000000000009 91.000000000000014 1.0000000180025095e-35 1.5000000000000002 1.0000000180025095e-35 30.500000000000004 1.0000000180025095e-35 1.0000000180025095e-35 -0.10047877207398413 -0.16581461578607556 -0.070948462933301912 51.562646865844734 51.494539260864265 -0.19203549623489377 -0.12281896919012068 -0.078365650027990327 51.530889511108406 118.50000000000001 1.0000000180025095e-35 -0.19781968742609021 51.480829238891609 51.525846481323249 1.0000000180025095e-35 1.0000000180025095e-35 1.0000000180025095e-35 6.5000000000000009 1.0000000180025095e-35 1.0000000180025095e-35 -0.12768407911062238
decision_type=2 2 2 2 2 2 2 2 2 2 2 2 2 2 2 2 2 2 2 2 2 2 2 2 2 2 2 2 2 2
left_child=4 2 3 5 25 7 8 -2 11 18 23 19 13 15 -15 -9 17 -16 20 -6 -3 -22 -23 -7 -10 -1 -11 -8 -4 -27
right_child=1 9 28 -5 6 10 27 12 24 26 -12 -13 -14 14 16 -17 -18 -19 -20 -21 21 22 -24 -25 -26 29 -28 -29 -30 -31
leaf_value=-0.10337033937952014 -0.034229726833819266 0.10287243318535524 0.16128485082389607 0.10608731549954586 -0.065685198258257638 -0.027832113549905842 -0.035265925317142351 0.021560519511657789 0.083977387641436391 0.045602328236201695 0.17864308744604507 -0.083733555499990009 -0.030574104589373693 -0.025108463417102385 0.14199263753974697 -0.026871972805154576 0.020873440243752935 0.037897458541815351 0.6048778307075261 -0.046407871343888886 0.094648527261930029 0.40262206184048505 0.12965355064239048 0.039655504053562919 -0.055424815423973199 -0.072931461417714213 0.16158823408407308 0.027987088687154396 -0.036515227828258841 0.025029083451716873
leaf_weight=4496 1414 1125 902 1652 3680 170 449 1934 292 1649 1163 3851 948 853 1104 1571 2254 1279 1013 3973 531 1767 741 842 253 262 724 484 42 34
leaf_count=4496 1414 1125 902 1652 3680 170 449 1934 292 1649 1163 3851 948 853 1104 1571 2254 1279 1013 3973 531 1767 741 842 253 262 724 484 42 34
internal_value=0 0.00135518 0.000826737 0.000662705 -0.00257654 0.000447393 -0.00223255 0.000171443 -0.00240327 0.00248401 0.0018883 -0.0025275 0.00040157 0.000572038 0.00102899 -0.000143693 0.00135152 0.00201108 0.00295566 -0.00215409 0.00265845 0.00302238 0.00334968 0.000523326 0.000219121 -0.00350843 0.00145505 -2.78254e-05 0.00346514 -0.00143838
internal_weight=0 23678 16128 15184 17774 13532 12982 11357 12049 7550 2175 11504 9943 8995 5490 3505 4637 2383 5177 7653 4164 3039 2508 1012 545 4792 2373 933 944 296
internal_count=41452 23678 16128 15184 17774 13532 12982 11357 12049 7550 2175 11504 9943 8995 5490 3505 4637 2383 5177 7653 4164 3039 2508 1012 545 4792 2373 933 944 296
shrinkage=0.00519221


Tree=28
num_leaves=31
num_cat=0
split_feature=80 6 30 78 15 50 72 3 9 9 30 72 30 30 30 74 40 9 9 3 9 9 30 9 9 41 30 9 9 30
split_gain=4668.82 465.306 207.524 186.585 176.299 159.067 146.398 136.621 125.598 142.522 177.699 99.576 87.8817 88.0924 86.4498 82.0991 67.1943 64.869 77.2912 60.0944 56.6838 53.8109 53.3269 53.0583 52.3975 49.3808 49.0477 48.6096 48.5415 47.595
threshold=1.0000000180025095e-35 1.5000000000000002 -0.068494137376546846 410.00000000000006 60.500000000000007 3.5000000000000004 0.38219177722930914 1.0000000180025095e-35 51.545145034790046 51.489416122436531 -0.19696793705224988 0.45342466235160833 -0.097391121089458452 -0.21677087992429731 -0.062567055225372301 1.0000000180025095e-35 33.500000000000007 51.485177993774421 51.530889511108406 1.0000000180025095e-35 51.497385025024421 51.551015853881843 -0.20229924470186231 51.531396865844734 51.465784072875984 1.0000000180025095e-35 -0.19866371154785153 51.519502639770515 51.52044868469239 -0.13391961157321927
decision_type=2 2 2 2 2 2 2 2 2 2 2 2 2 2 2 2 2 2 2 2 2 2 2 2 2 2 2 2 2 2
left_child=2 4 5 6 7 8 14 12 9 -1 -11 -9 13 28 17 27 -17 29 22 -4 -14 -22 -19 24 -8 -7 -26 -12 -2 -3
right_child=1 3 19 -5 -6 25 23 11 -10 10 15 -13 20 -15 -16 16 -18 18 -20 -21 21 -23 -24 -25 26 -27 -28 -29 -30 -31
leaf_value=-0.14478231156794094 -0.024759594949787522 0.11174634681285515 -0.18266842312756423 0.71024370014135974 0.18809978360001056 0.262712041803288 0.092521334315714715 0.029088479412460753 -0.16036383131008497 -0.14329569875622489 -0.020780700924903597 0.1616245811711019 -0.13167720945660816 0.030994776205631111 -0.0091187721211603828 0.02130830761557671 -0.25870980835142121 0.098226575978783259 0.074336789820843671 -0.10319096795438315 0.0028514350018463887 -0.092946571247803186 0.34680911269938813 0.14315660418748791 0.11937796416371987 -0.057111126428828894 0.5136364262658516 -0.087888080488632642 -0.13071101533328594 -0.061035407710042927
leaf_weight=3963 515 963 4294 2301 1415 302 334 1969 2559 1496 815 953 646 4002 1258 1560 59 511 1338 1148 1145 425 1861 690 381 466 2226 1112 261 484
leaf_count=3963 515 963 4294 2301 1415 302 334 1969 2559 1496 815 953 646 4002 1258 1560 59 511 1338 1148 1145 425 1861 690 381 466 2226 1112 261 484
internal_value=0 0.00242314 -0.00477931 0.00384947 0.000868921 -0.00401693 0.0032246 0.00036846 -0.00432779 -0.00373773 -0.0025531 0.00229724 -0.000437357 0.00037345 0.00225998 -0.001258 0.000505141 0.00286895 0.00361289 -0.00650693 -0.00218557 -0.00109593 0.00476426 0.00492881 0.0055507 0.000663818 0.00605813 -0.00273932 -0.00290164 0.000961549
internal_weight=0 23678 17774 12347 11331 12332 10046 9916 11564 9005 5042 2922 6994 4778 6415 3546 1619 5157 3710 5442 2216 1570 2372 3631 2941 768 2607 1927 776 1447
internal_count=41452 23678 17774 12347 11331 12332 10046 9916 11564 9005 5042 2922 6994 4778 6415 3546 1619 5157 3710 5442 2216 1570 2372 3631 2941 768 2607 1927 776 1447
shrinkage=0.0106211


Tree=29
num_leaves=31
num_cat=0
split_feature=80 78 50 30 102 115 62 9 9 30 7 117 15 15 15 40 72 9 77 9 30 35 30 40 3 41 77 30 40 30
split_gain=4357.94 438.598 297.63 202.375 159.055 172.886 151.34 124.638 127.898 136.864 119.585 104.011 101.231 90.8792 87.7653 75.4439 73.7437 68.3707 66.8142 63.9199 70.2286 63.4336 62.1224 54.3443 52.9321 50.8008 50.6861 48.8346 45.4243 58.2966
threshold=1.0000000180025095e-35 282.50000000000006 3.5000000000000004 -0.068494137376546846 1.0000000180025095e-35 1.0000000180025095e-35 1.5000000000000002 51.545145034790046 51.469526290893562 -0.22547248750925061 1.0000000180025095e-35 1.0000000180025095e-35 70.500000000000014 49.500000000000007 29.500000000000004 43.500000000000007 0.12191780656576158 51.562646865844734 1.0000000180025095e-35 51.490243911743171 -0.2216876074671745 1.0000000180025095e-35 -0.18399971723556516 91.000000000000014 1.0000000180025095e-35 1.0000000180025095e-35 1.0000000180025095e-35 -0.097391121089458452 97.500000000000014 -0.2232590168714523
decision_type=2 2 2 2 2 2 2 2 2 2 2 2 2 2 2 2 2 2 2 2 2 2 2 2 2 2 2 2 2 2
left_child=3 2 10 6 5 11 7 8 -1 -10 17 -4 18 15 -8 16 -11 19 -3 27 -21 -13 -7 -12 -5 -18 -22 -2 29 -14
right_child=1 12 4 24 -6 22 14 -9 9 13 23 21 28 -15 -16 -17 25 -19 -20 20 26 -23 -24 -25 -26 -27 -28 -29 -30 -31
leaf_value=-0.10961996443787597 -0.014393054367506125 0.10850824902308208 0.09554064210552464 -0.11744309935580143 0.21037528246363046 0.064832407603169481 -0.038556234241095409 -0.10572484137158461 -0.10178513964841623 -0.059642671871714965 0.036614758697967341 -0.0087798469353049854 -0.03887645298215868 0.079334478386009349 0.095673038228293789 -0.16633242465403134 0.0052509284421127875 -0.078451439083163044 0.9220116717405854 -0.069530065722359952 0.0076022428504614464 0.055010325801549874 0.35520768457207141 0.1278796631448248 -0.066344619910715177 -0.042627364766308344 0.13201787667813886 -0.095547804040845424 0.40047142843552247 0.42465635660168749
leaf_weight=2539 1040 2707 3321 4294 997 420 717 2451 1122 2307 938 2624 139 191 490 123 1442 521 320 337 3254 2492 1241 170 1148 950 262 471 851 1573
leaf_count=2539 1040 2707 3321 4294 997 420 717 2451 1122 2307 938 2624 139 191 490 123 1442 521 320 337 3254 2492 1241 170 1148 950 262 471 851 1573
internal_value=0 0.00155005 0.0010062 -0.00315927 0.00173821 0.00146779 -0.00264975 -0.00291204 -0.0025076 -0.0019461 -0.000155211 0.00105047 0.00330983 -0.00143818 -0.000232256 -0.0016308 -0.00148533 -0.000563072 0.00241975 -0.000321612 0.000169766 0.000407452 0.00358752 0.00201109 -0.00431387 -0.000601005 0.000470206 -0.00157461 0.00436105 0.00368638
internal_weight=0 23678 18088 17774 11095 10098 12332 11125 8674 6135 6993 8437 5590 5013 1207 4822 4699 5885 3027 5364 3853 5116 1661 1108 5442 2392 3516 1511 2563 1712
internal_count=41452 23678 18088 17774 11095 10098 12332 11125 8674 6135 6993 8437 5590 5013 1207 4822 4699 5885 3027 5364 3853 5116 1661 1108 5442 2392 3516 1511 2563 1712
shrinkage=0.00718802


Tree=30
num_leaves=31
num_cat=0
split_feature=80 25 30 30 40 50 50 30 72 30 9 9 9 9 9 40 30 30 9 16 15 3 6 9 9 30 30 72 112 30
split_gain=4732.94 513.6 200.93 193.44 178.686 164.738 126.02 120.087 109.069 102.67 102.536 186.396 102.154 126.564 83.3917 76.4522 68.2247 64.9034 63.09 62.93 61.1083 59.195 56.5168 53.6108 58.9979 60.5188 62.8046 51.5687 49.8623 48.941
threshold=1.0000000180025095e-35 1.0000000180025095e-35 -0.062567055225372301 -0.070948462933301912 28.500000000000004 2.5000000000000004 7.5000000000000009 -0.21677087992429731 0.13287670910358432 -0.22747328132390973 51.491022109985359 51.530889511108406 51.551015853881843 51.489416122436531 51.52452468872071 91.000000000000014 -0.12512892484664914 -0.16581461578607556 51.512769699096687 1.0000000180025095e-35 22.500000000000004 1.0000000180025095e-35 1.0000000180025095e-35 51.551015853881843 51.491651535034187 -0.069926511496305452 -0.19482023268938062 0.82876715064048778 1.0000000180025095e-35 -0.13634625822305677
decision_type=2 2 2 2 2 2 2 2 2 2 2 2 2 2 2 2 2 2 2 2 2 2 2 2 2 2 2 2 2 2
left_child=3 2 4 5 7 9 8 22 15 -1 16 17 13 29 -15 -3 -9 18 -12 -6 -7 -5 -2 24 -10 26 -26 -21 -4 -11
right_child=1 6 28 21 19 20 -8 10 23 12 11 -13 -14 14 -16 -17 -18 -19 -20 27 -22 -23 -24 -25 25 -27 -28 -29 -30 -31
leaf_value=-0.10675082535541612 -0.092349460060846739 0.070776135353099581 -0.044868413472333848 -0.11670050962181297 0.21269659835653551 -0.046134327156408243 0.63820650086999953 0.031415465781108154 0.14473544703898017 -0.076459196384157421 0.1147635300207325 0.0026400425183384156 -0.10885553146848957 -0.010495724405800214 -0.058809447609290084 0.33948866138955131 -0.04193740951692284 0.12329876938217792 0.0079799577728903639 0.070936601405311744 0.041907878689589284 -0.0705651331171641 -0.013926816417597949 0.0086470153263459304 0.17002861686652698 0.13121094769817515 0.63779229397828119 0.1178348086178146 0.012394929811427952 -0.11309129555224638
leaf_weight=2056 212 2443 1833 4515 330 622 1457 1755 907 1737 826 2614 1457 2105 1977 428 921 2910 978 1056 706 1215 1161 225 360 415 1602 354 891 1384
leaf_count=2056 212 2443 1833 4515 330 622 1457 1755 907 1737 826 2614 1457 2105 1977 428 921 2910 978 1056 706 1215 1161 225 360 415 1602 354 891 1384
internal_value=0 0.00160854 0.000875723 -0.00322144 0.00123879 -0.00271241 0.00308979 0.000915897 0.00266111 -0.00300366 0.00118515 0.00161793 -0.00266627 -0.00232072 -0.00150078 0.00163855 0 0.00245808 0.00140384 0.00335004 -0.000362228 -0.00429138 -0.00104592 0.00349774 0.00372662 0.00431232 0.00483145 0.0026992 -0.000872577 -0.00339312
